svm_type c_svc
kernel_type rbf
gamma 0.1
nr_class 2
total_sv 5266
rho -1.26902
label 1 -1
probA -1.17204
probB 0.0453199
nr_sv 2614 2652
SV
10 1:0.30734 2:0.24128 3:0.50461 4:0.31895 5:0.027825 6:0.33505 7:0.36314 8:0.19205 9:0.047938 10:0.62843 11:0.82285 12:0.090688 13:0.23604 14:0.48708 15:0.45601 16:0.53669 17:0.58942 18:0.026794 19:0.35946 20:0.87342 21:0.30734 22:0.24128 23:0.50461 24:0.31895 25:0.027825 26:0.33505 27:0.36314 28:0.19205 29:0.047938 30:0.62843 31:0.82285 32:0.090688 33:0.23604 34:0.48708 35:0.45601 36:0.53669 37:0.58942 38:0.026794 39:0.35946 40:0.87342 41:0.30734 42:0.24128 43:0.50461 44:0.31895 45:0.027825 46:0.33505 47:0.36314 48:0.19205 49:0.047938 50:0.62843 51:0.82285 52:0.090688 53:0.23604 54:0.48708 55:0.45601 56:0.53669 57:0.58942 58:0.026794 59:0.35946 60:0.87342 
10 1:0.44724 2:0.69003 3:0.41937 4:0.40679 5:0.027825 6:0.47415 7:0.63108 8:0.47676 9:0.047938 10:0.056643 11:0.67687 12:0.47985 13:0.38194 14:0.72941 15:0.78829 16:0.63755 17:0.52331 18:0.013579 19:0.66714 20:0.56405 21:0.44724 22:0.69003 23:0.41937 24:0.40679 25:0.027825 26:0.47415 27:0.63108 28:0.47676 29:0.047938 30:0.056643 31:0.67687 32:0.47985 33:0.38194 34:0.72941 35:0.78829 36:0.63755 37:0.52331 38:0.013579 39:0.66714 40:0.56405 41:0.44724 42:0.69003 43:0.41937 44:0.40679 45:0.027825 46:0.47415 47:0.63108 48:0.47676 49:0.047938 50:0.056643 51:0.67687 52:0.47985 53:0.38194 54:0.72941 55:0.78829 56:0.63755 57:0.52331 58:0.013579 59:0.66714 60:0.56405 
10 1:0.39486 2:0.3683 3:0.50002 4:0.34145 5:0.4072 6:0.28459 7:0.66159 8:0.69676 9:0.13123 10:0.27022 11:0.67687 12:0.21523 13:0.062098 14:0.7611 15:0.5391 16:0.58235 17:0.64835 18:0.064396 19:0.8469 20:0.64621 21:0.39486 22:0.3683 23:0.50002 24:0.34145 25:0.4072 26:0.28459 27:0.66159 28:0.69676 29:0.13123 30:0.27022 31:0.67687 32:0.21523 33:0.062098 34:0.7611 35:0.5391 36:0.58235 37:0.64835 38:0.064396 39:0.8469 40:0.64621 41:0.39486 42:0.3683 43:0.50002 44:0.34145 45:0.4072 46:0.28459 47:0.66159 48:0.69676 49:0.13123 50:0.27022 51:0.67687 52:0.21523 53:0.062098 54:0.7611 55:0.5391 56:0.58235 57:0.64835 58:0.064396 59:0.8469 60:0.64621 
10 1:0.025436 2:0.050335 3:0.018183 4:0.15539 5:0.027825 6:0.13728 7:0.026434 8:0 9:0.047938 10:0.029147 11:0.2907 12:0.024327 13:0.042274 14:0.812 15:0 16:0.021001 17:0.13406 18:0.22425 19:0.98414 20:0.070725 21:0.025436 22:0.050335 23:0.018183 24:0.15539 25:0.027825 26:0.13728 27:0.026434 28:0 29:0.047938 30:0.029147 31:0.2907 32:0.024327 33:0.042274 34:0.812 35:0 36:0.021001 37:0.13406 38:0.22425 39:0.98414 40:0.070725 41:0.025436 42:0.050335 43:0.018183 44:0.15539 45:0.027825 46:0.13728 47:0.026434 48:0 49:0.047938 50:0.029147 51:0.2907 52:0.024327 53:0.042274 54:0.812 55:0 56:0.021001 57:0.13406 58:0.22425 59:0.98414 60:0.070725 
10 1:0.2385 2:0.050335 3:0.018183 4:0 5:0 6:0.013086 7:0 8:0.20477 9:0 10:0.019622 11:0.083474 12:0.024327 13:0.021593 14:0.029722 15:0.94568 16:0.37525 17:0.28985 18:0 19:0 20:0.048288 21:0.2385 22:0.050335 23:0.018183 24:0 25:0 26:0.013086 27:0 28:0.20477 29:0 30:0.019622 31:0.083474 32:0.024327 33:0.021593 34:0.029722 35:0.94568 36:0.37525 37:0.28985 38:0 39:0 40:0.048288 41:0.2385 42:0.050335 43:0.018183 44:0 45:0 46:0.013086 47:0 48:0.20477 49:0 50:0.019622 51:0.083474 52:0.024327 53:0.021593 54:0.029722 55:0.94568 56:0.37525 57:0.28985 58:0 59:0 60:0.048288 
10 1:0.34856 2:0.050335 3:0.018183 4:0 5:0.054143 6:0.12729 7:0 8:0.35676 9:0 10:0.59857 11:0.93158 12:0 13:0.3646 14:0.60016 15:0.037526 16:0.19092 17:0.46599 18:0.026794 19:0.89979 20:0.83672 21:0.34856 22:0.050335 23:0.018183 24:0 25:0.054143 26:0.12729 27:0 28:0.35676 29:0 30:0.59857 31:0.93158 32:0 33:0.3646 34:0.60016 35:0.037526 36:0.19092 37:0.46599 38:0.026794 39:0.89979 40:0.83672 41:0.34856 42:0.050335 43:0.018183 44:0 45:0.054143 46:0.12729 47:0 48:0.35676 49:0 50:0.59857 51:0.93158 52:0 53:0.3646 54:0.60016 55:0.037526 56:0.19092 57:0.46599 58:0.026794 59:0.89979 60:0.83672 
10 1:0.46274 2:0.70459 3:0.18183 4:0.016451 5:0.054143 6:0.025835 7:0.32829 8:0.05609 9:0.016507 10:0.37517 11:0.95864 12:0.32145 13:0.6355 14:0.28481 15:0.12008 16:0.25552 17:0.07787 18:0.29227 19:0.71953 20:0.66713 21:0.46274 22:0.70459 23:0.18183 24:0.016451 25:0.054143 26:0.025835 27:0.32829 28:0.05609 29:0.016507 30:0.37517 31:0.95864 32:0.32145 33:0.6355 34:0.28481 35:0.12008 36:0.25552 37:0.07787 38:0.29227 39:0.71953 40:0.66713 41:0.46274 42:0.70459 43:0.18183 44:0.016451 45:0.054143 46:0.025835 47:0.32829 48:0.05609 49:0.016507 50:0.37517 51:0.95864 52:0.32145 53:0.6355 54:0.28481 55:0.12008 56:0.25552 57:0.07787 58:0.29227 59:0.71953 60:0.66713 
10 1:0.39486 2:0.8032 3:0.53045 4:0.55311 5:0.027825 6:0.14703 7:0.32829 8:0.91166 9:0.16764 10:0.0099083 11:0.38933 12:0.55978 13:0.15006 14:0.26879 15:0.13492 16:0.48556 17:0.20213 18:0.013579 19:0.07422 20:0.28871 21:0.39486 22:0.8032 23:0.53045 24:0.55311 25:0.027825 26:0.14703 27:0.32829 28:0.91166 29:0.16764 30:0.0099083 31:0.38933 32:0.55978 33:0.15006 34:0.26879 35:0.13492 36:0.48556 37:0.20213 38:0.013579 39:0.07422 40:0.28871 41:0.39486 42:0.8032 43:0.53045 44:0.55311 45:0.027825 46:0.14703 47:0.32829 48:0.91166 49:0.16764 50:0.0099083 51:0.38933 52:0.55978 53:0.15006 54:0.26879 55:0.13492 56:0.48556 57:0.20213 58:0.013579 59:0.07422 60:0.28871 
10 1:0.38018 2:0.71784 3:0.41306 4:0.63272 5:0.027825 6:0.10662 7:0.58067 8:0.66 9:0.047938 10:0.11512 11:0.35336 12:0.5549 13:0.021593 14:0.25203 15:0.76174 16:0.83678 17:0.60756 18:0.013579 19:0.07422 20:0.048288 21:0.38018 22:0.71784 23:0.41306 24:0.63272 25:0.027825 26:0.10662 27:0.58067 28:0.66 29:0.047938 30:0.11512 31:0.35336 32:0.5549 33:0.021593 34:0.25203 35:0.76174 36:0.83678 37:0.60756 38:0.013579 39:0.07422 40:0.048288 41:0.38018 42:0.71784 43:0.41306 44:0.63272 45:0.027825 46:0.10662 47:0.58067 48:0.66 49:0.047938 50:0.11512 51:0.35336 52:0.5549 53:0.021593 54:0.25203 55:0.76174 56:0.83678 57:0.60756 58:0.013579 59:0.07422 60:0.048288 
10 1:0.63962 2:0.87896 3:0.40661 4:0.25066 5:0.30036 6:0.35219 7:0.47258 8:0.66227 9:0.44098 10:0.074125 11:0.70309 12:0.47985 13:0.081118 14:0.34243 15:0.46172 16:0.72837 17:0.46599 18:0.38771 19:0.35946 20:0.47032 21:0.63962 22:0.87896 23:0.40661 24:0.25066 25:0.30036 26:0.35219 27:0.47258 28:0.66227 29:0.44098 30:0.074125 31:0.70309 32:0.47985 33:0.081118 34:0.34243 35:0.46172 36:0.72837 37:0.46599 38:0.38771 39:0.35946 40:0.47032 41:0.63962 42:0.87896 43:0.40661 44:0.25066 45:0.30036 46:0.35219 47:0.47258 48:0.66227 49:0.44098 50:0.074125 51:0.70309 52:0.47985 53:0.081118 54:0.34243 55:0.46172 56:0.72837 57:0.46599 58:0.38771 59:0.35946 60:0.47032 
10 1:0.246 2:0.81295 3:0.29872 4:0.54286 5:0.18631 6:0.43894 7:0.52063 8:0.44206 9:0.29557 10:0.15976 11:0.8856 12:0.61102 13:0.48104 14:0.4617 15:0.20219 16:0.59328 17:0.6898 18:0.039659 19:0.67579 20:0.48418 21:0.246 22:0.81295 23:0.29872 24:0.54286 25:0.18631 26:0.43894 27:0.52063 28:0.44206 29:0.29557 30:0.15976 31:0.8856 32:0.61102 33:0.48104 34:0.4617 35:0.20219 36:0.59328 37:0.6898 38:0.039659 39:0.67579 40:0.48418 41:0.246 42:0.81295 43:0.29872 44:0.54286 45:0.18631 46:0.43894 47:0.52063 48:0.44206 49:0.29557 50:0.15976 51:0.8856 52:0.61102 53:0.48104 54:0.4617 55:0.20219 56:0.59328 57:0.6898 58:0.039659 59:0.67579 60:0.48418 
10 1:0.51077 2:0.050335 3:0.018183 4:0 5:0.55739 6:0.013086 7:0.026434 8:0.30351 9:0 10:0.72988 11:0.89591 12:0.024327 13:0.68818 14:0.52444 15:0.037526 16:0.23096 17:0.20213 18:0.15179 19:0.24282 20:0.83672 21:0.51077 22:0.050335 23:0.018183 24:0 25:0.55739 26:0.013086 27:0.026434 28:0.30351 29:0 30:0.72988 31:0.89591 32:0.024327 33:0.68818 34:0.52444 35:0.037526 36:0.23096 37:0.20213 38:0.15179 39:0.24282 40:0.83672 41:0.51077 42:0.050335 43:0.018183 44:0 45:0.55739 46:0.013086 47:0.026434 48:0.30351 49:0 50:0.72988 51:0.89591 52:0.024327 53:0.68818 54:0.52444 55:0.037526 56:0.23096 57:0.20213 58:0.15179 59:0.24282 60:0.83672 
10 1:0.82727 2:0.13719 3:0.22858 4:0.032369 5:0.23945 6:0.050368 7:0.051507 8:0.66892 9:0.016507 10:0.30571 11:0.86688 12:0.047498 13:0.63255 14:0.4026 15:0.28052 16:0.63755 17:0.2679 18:0.16158 19:0.56193 20:0.53853 21:0.82727 22:0.13719 23:0.22858 24:0.032369 25:0.23945 26:0.050368 27:0.051507 28:0.66892 29:0.016507 30:0.30571 31:0.86688 32:0.047498 33:0.63255 34:0.4026 35:0.28052 36:0.63755 37:0.2679 38:0.16158 39:0.56193 40:0.53853 41:0.82727 42:0.13719 43:0.22858 44:0.032369 45:0.23945 46:0.050368 47:0.051507 48:0.66892 49:0.016507 50:0.30571 51:0.86688 52:0.047498 53:0.63255 54:0.4026 55:0.28052 56:0.63755 57:0.2679 58:0.16158 59:0.56193 60:0.53853 
10 1:0.59591 2:0 3:0.018183 4:0 5:0.61579 6:0.013086 7:0 8:0.7056 9:0 10:0.2594 11:0.81063 12:0 13:0.26097 14:0.66907 15:0.20219 16:0.72188 17:0.8059 18:0.14177 19:0.19388 20:0.55917 21:0.59591 22:0 23:0.018183 24:0 25:0.61579 26:0.013086 27:0 28:0.7056 29:0 30:0.2594 31:0.81063 32:0 33:0.26097 34:0.66907 35:0.20219 36:0.72188 37:0.8059 38:0.14177 39:0.19388 40:0.55917 41:0.59591 42:0 43:0.018183 44:0 45:0.61579 46:0.013086 47:0 48:0.7056 49:0 50:0.2594 51:0.81063 52:0 53:0.26097 54:0.66907 55:0.20219 56:0.72188 57:0.8059 58:0.14177 59:0.19388 60:0.55917 
10 1:0.61226 2:0.13719 3:0.18183 4:0.016451 5:0.23945 6:0.20124 7:0.17845 8:0.073415 9:0.032477 10:0.45671 11:0.93385 12:0.047498 13:0.50915 14:0.73598 15:0.037526 16:0.52729 17:0.28985 18:0.039659 19:0.80034 20:0.7919 21:0.61226 22:0.13719 23:0.18183 24:0.016451 25:0.23945 26:0.20124 27:0.17845 28:0.073415 29:0.032477 30:0.45671 31:0.93385 32:0.047498 33:0.50915 34:0.73598 35:0.037526 36:0.52729 37:0.28985 38:0.039659 39:0.80034 40:0.7919 41:0.61226 42:0.13719 43:0.18183 44:0.016451 45:0.23945 46:0.20124 47:0.17845 48:0.073415 49:0.032477 50:0.45671 51:0.93385 52:0.047498 53:0.50915 54:0.73598 55:0.037526 56:0.52729 57:0.28985 58:0.039659 59:0.80034 60:0.7919 
10 1:0.5317 2:0.2095 3:0.22858 4:0.10481 5:0.054143 6:0.25637 7:0.15971 8:0.7519 9:0.13123 10:0.46827 11:0.58535 12:0.30977 13:0.42869 14:0.4617 15:0.22626 16:0.76529 17:0.68288 18:0.026794 19:0.69181 20:0.77907 21:0.5317 22:0.2095 23:0.22858 24:0.10481 25:0.054143 26:0.25637 27:0.15971 28:0.7519 29:0.13123 30:0.46827 31:0.58535 32:0.30977 33:0.42869 34:0.4617 35:0.22626 36:0.76529 37:0.68288 38:0.026794 39:0.69181 40:0.77907 41:0.5317 42:0.2095 43:0.22858 44:0.10481 45:0.054143 46:0.25637 47:0.15971 48:0.7519 49:0.13123 50:0.46827 51:0.58535 52:0.30977 53:0.42869 54:0.4617 55:0.22626 56:0.76529 57:0.68288 58:0.026794 59:0.69181 60:0.77907 
10 1:0.5916 2:0.65613 3:0.15626 4:0.15539 5:0.027825 6:0.53566 7:0.74033 8:0.69119 9:0.062912 10:0.20647 11:0.8431 12:0.66607 13:0.062098 14:0.31483 15:0.5512 16:0.6289 17:0.21966 18:0.026794 19:0.79709 20:0.63304 21:0.5916 22:0.65613 23:0.15626 24:0.15539 25:0.027825 26:0.53566 27:0.74033 28:0.69119 29:0.062912 30:0.20647 31:0.8431 32:0.66607 33:0.062098 34:0.31483 35:0.5512 36:0.6289 37:0.21966 38:0.026794 39:0.79709 40:0.63304 41:0.5916 42:0.65613 43:0.15626 44:0.15539 45:0.027825 46:0.53566 47:0.74033 48:0.69119 49:0.062912 50:0.20647 51:0.8431 52:0.66607 53:0.062098 54:0.31483 55:0.5512 56:0.6289 57:0.21966 58:0.026794 59:0.79709 60:0.63304 
10 1:0.47381 2:0.80722 3:0.36472 4:0.6035 5:0.027825 6:0.38893 7:0.54436 8:0.6131 9:0.60694 10:0.16677 11:0.54212 12:0.18327 13:0.062098 14:0.13282 15:0.67999 16:0.69253 17:0.59178 18:0.11023 19:0.52883 20:0.61133 21:0.47381 22:0.80722 23:0.36472 24:0.6035 25:0.027825 26:0.38893 27:0.54436 28:0.6131 29:0.60694 30:0.16677 31:0.54212 32:0.18327 33:0.062098 34:0.13282 35:0.67999 36:0.69253 37:0.59178 38:0.11023 39:0.52883 40:0.61133 41:0.47381 42:0.80722 43:0.36472 44:0.6035 45:0.027825 46:0.38893 47:0.54436 48:0.6131 49:0.60694 50:0.16677 51:0.54212 52:0.18327 53:0.062098 54:0.13282 55:0.67999 56:0.69253 57:0.59178 58:0.11023 59:0.52883 60:0.61133 
10 1:0.40427 2:0.45889 3:0.48079 4:0.60085 5:0.027825 6:0.084936 7:0.40434 8:0.77309 9:0.062912 10:0.047653 11:0.26703 12:0.42792 13:0.29544 14:0.10916 15:0.54321 16:0.84177 17:0.66961 18:0.026794 19:0.76674 20:0.37844 21:0.40427 22:0.45889 23:0.48079 24:0.60085 25:0.027825 26:0.084936 27:0.40434 28:0.77309 29:0.062912 30:0.047653 31:0.26703 32:0.42792 33:0.29544 34:0.10916 35:0.54321 36:0.84177 37:0.66961 38:0.026794 39:0.76674 40:0.37844 41:0.40427 42:0.45889 43:0.48079 44:0.60085 45:0.027825 46:0.084936 47:0.40434 48:0.77309 49:0.062912 50:0.047653 51:0.26703 52:0.42792 53:0.29544 54:0.10916 55:0.54321 56:0.84177 57:0.66961 58:0.026794 59:0.76674 60:0.37844 
10 1:0.34856 2:0.76669 3:0.45456 4:0.40085 5:0.027825 6:0.13728 7:0.37396 8:0.62738 9:0.16764 10:0.30086 11:0.76629 12:0.36446 13:0.49828 14:0.4617 15:0.51742 16:0.67765 17:0.6898 18:0.31237 19:0.7316 20:0.69542 21:0.34856 22:0.76669 23:0.45456 24:0.40085 25:0.027825 26:0.13728 27:0.37396 28:0.62738 29:0.16764 30:0.30086 31:0.76629 32:0.36446 33:0.49828 34:0.4617 35:0.51742 36:0.67765 37:0.6898 38:0.31237 39:0.7316 40:0.69542 41:0.34856 42:0.76669 43:0.45456 44:0.40085 45:0.027825 46:0.13728 47:0.37396 48:0.62738 49:0.16764 50:0.30086 51:0.76629 52:0.36446 53:0.49828 54:0.4617 55:0.51742 56:0.67765 57:0.6898 58:0.31237 59:0.7316 60:0.69542 
10 1:0.49463 2:0.68485 3:0.33335 4:0.37583 5:0.027825 6:0.32914 7:0.4489 8:0.53889 9:0.29557 10:0.24256 11:0.79659 12:0.11085 13:0.4214 14:0.39146 15:0.43191 16:0.58235 17:0.48157 18:0.2991 19:0.9502 20:0.57805 21:0.49463 22:0.68485 23:0.33335 24:0.37583 25:0.027825 26:0.32914 27:0.4489 28:0.53889 29:0.29557 30:0.24256 31:0.79659 32:0.11085 33:0.4214 34:0.39146 35:0.43191 36:0.58235 37:0.48157 38:0.2991 39:0.9502 40:0.57805 41:0.49463 42:0.68485 43:0.33335 44:0.37583 45:0.027825 46:0.32914 47:0.4489 48:0.53889 49:0.29557 50:0.24256 51:0.79659 52:0.11085 53:0.4214 54:0.39146 55:0.43191 56:0.58235 57:0.48157 58:0.2991 59:0.9502 60:0.57805 
10 1:0.55611 2:0.92102 3:0.28001 4:0.14329 5:0.27118 6:0.25637 7:0.097969 8:0.22906 9:0.20112 10:0.1871 11:0.75034 12:0.89719 13:0.042274 14:0.10916 15:0.18958 16:0.46795 17:0.33629 18:0.099201 19:0.24282 20:0.4631 21:0.55611 22:0.92102 23:0.28001 24:0.14329 25:0.27118 26:0.25637 27:0.097969 28:0.22906 29:0.20112 30:0.1871 31:0.75034 32:0.89719 33:0.042274 34:0.10916 35:0.18958 36:0.46795 37:0.33629 38:0.099201 39:0.24282 40:0.4631 41:0.55611 42:0.92102 43:0.28001 44:0.14329 45:0.27118 46:0.25637 47:0.097969 48:0.22906 49:0.20112 50:0.1871 51:0.75034 52:0.89719 53:0.042274 54:0.10916 55:0.18958 56:0.46795 57:0.33629 58:0.099201 59:0.24282 60:0.4631 
10 1:0.33151 2:0.095846 3:0.20589 4:0.15539 5:0.027825 6:0.095906 7:0.17845 8:0.39528 9:0.032477 10:0.32449 11:0.67205 12:0.047498 13:0.39025 14:0.71275 15:0.30957 16:0.30022 17:0.51683 18:0.86563 19:0.82301 20:0.44807 21:0.33151 22:0.095846 23:0.20589 24:0.15539 25:0.027825 26:0.095906 27:0.17845 28:0.39528 29:0.032477 30:0.32449 31:0.67205 32:0.047498 33:0.39025 34:0.71275 35:0.30957 36:0.30022 37:0.51683 38:0.86563 39:0.82301 40:0.44807 41:0.33151 42:0.095846 43:0.20589 44:0.15539 45:0.027825 46:0.095906 47:0.17845 48:0.39528 49:0.032477 50:0.32449 51:0.67205 52:0.047498 53:0.39025 54:0.71275 55:0.30957 56:0.30022 57:0.51683 58:0.86563 59:0.82301 60:0.44807 
10 1:0.35945 2:0.050335 3:0.018183 4:0 5:0.4072 6:0.084936 7:0 8:0.59768 9:0.016507 10:0.065466 11:0.73845 12:0 13:0.35556 14:0.86923 15:0.019122 16:0.060463 17:0.21966 18:0.80023 19:0.94157 20:0.32524 21:0.35945 22:0.050335 23:0.018183 24:0 25:0.4072 26:0.084936 27:0 28:0.59768 29:0.016507 30:0.065466 31:0.73845 32:0 33:0.35556 34:0.86923 35:0.019122 36:0.060463 37:0.21966 38:0.80023 39:0.94157 40:0.32524 41:0.35945 42:0.050335 43:0.018183 44:0 45:0.4072 46:0.084936 47:0 48:0.59768 49:0.016507 50:0.065466 51:0.73845 52:0 53:0.35556 54:0.86923 55:0.019122 56:0.060463 57:0.21966 58:0.80023 59:0.94157 60:0.32524 
4.410041970883809 1:0.049611 2:0.050335 3:0.018183 4:0.016451 5:0.027825 6:0.013086 7:0.026434 8:0.66452 9:0.032477 10:0.11512 11:0.74153 12:0.024327 13:0.062098 14:0.93108 15:0.037526 16:0.060463 17:0.21966 18:0.57677 19:0.94703 20:0.3582 21:0.049611 22:0.050335 23:0.018183 24:0.016451 25:0.027825 26:0.013086 27:0.026434 28:0.66452 29:0.032477 30:0.11512 31:0.74153 32:0.024327 33:0.062098 34:0.93108 35:0.037526 36:0.060463 37:0.21966 38:0.57677 39:0.94703 40:0.3582 41:0.049611 42:0.050335 43:0.018183 44:0.016451 45:0.027825 46:0.013086 47:0.026434 48:0.66452 49:0.032477 50:0.11512 51:0.74153 52:0.024327 53:0.062098 54:0.93108 55:0.037526 56:0.060463 57:0.21966 58:0.57677 59:0.94703 60:0.3582 
10 1:0.51077 2:0 3:0.16924 4:0.16716 5:0.77303 6:0.013086 7:0 8:0.5259 9:0 10:0.39412 11:0.77352 12:0 13:0.76919 14:0.67239 15:0.037526 16:0.58235 17:0.68569 18:0.25603 19:0.13818 20:0.73967 21:0.51077 22:0 23:0.16924 24:0.16716 25:0.77303 26:0.013086 27:0 28:0.5259 29:0 30:0.39412 31:0.77352 32:0 33:0.76919 34:0.67239 35:0.037526 36:0.58235 37:0.68569 38:0.25603 39:0.13818 40:0.73967 41:0.51077 42:0 43:0.16924 44:0.16716 45:0.77303 46:0.013086 47:0 48:0.5259 49:0 50:0.39412 51:0.77352 52:0 53:0.76919 54:0.67239 55:0.037526 56:0.58235 57:0.68569 58:0.25603 59:0.13818 60:0.73967 
10 1:0.60012 2:0.2095 3:0.18183 4:0 5:0.10272 6:0.013086 7:0 8:0.6328 9:0.26967 10:0.432 11:0.79659 12:0 13:0.23604 14:0.7833 15:0.25975 16:0.44249 17:0.32365 18:0.36077 19:0.94443 20:0.748 21:0.60012 22:0.2095 23:0.18183 24:0 25:0.10272 26:0.013086 27:0 28:0.6328 29:0.26967 30:0.432 31:0.79659 32:0 33:0.23604 34:0.7833 35:0.25975 36:0.44249 37:0.32365 38:0.36077 39:0.94443 40:0.748 41:0.60012 42:0.2095 43:0.18183 44:0 45:0.10272 46:0.013086 47:0 48:0.6328 49:0.26967 50:0.432 51:0.79659 52:0 53:0.23604 54:0.7833 55:0.25975 56:0.44249 57:0.32365 58:0.36077 59:0.94443 60:0.748 
0.4436562587021545 1:0.35405 2:0.58866 3:0.035717 4:0.13084 5:0.027825 6:0.038258 7:0.026434 8:0.50254 9:0.20112 10:0.35915 11:0.66195 12:0.25875 13:0.30623 14:0.69099 15:0.019122 16:0.34908 17:0.31715 18:0.59562 19:0.97012 20:0.64301 21:0.35405 22:0.58866 23:0.035717 24:0.13084 25:0.027825 26:0.038258 27:0.026434 28:0.50254 29:0.20112 30:0.35915 31:0.66195 32:0.25875 33:0.30623 34:0.69099 35:0.019122 36:0.34908 37:0.31715 38:0.59562 39:0.97012 40:0.64301 41:0.35405 42:0.58866 43:0.035717 44:0.13084 45:0.027825 46:0.038258 47:0.026434 48:0.50254 49:0.20112 50:0.35915 51:0.66195 52:0.25875 53:0.30623 54:0.69099 55:0.019122 56:0.34908 57:0.31715 58:0.59562 59:0.97012 60:0.64301 
10 1:0.46274 2:0.3683 3:0.11476 4:0.26899 5:0.054143 6:0.37887 7:0.7248 8:0.5666 9:0.57917 10:0.24826 11:0.86441 12:0.40234 13:0.46257 14:0.5027 15:0.037526 16:0.70424 17:0.42259 18:0.026794 19:0.81235 20:0.73261 21:0.46274 22:0.3683 23:0.11476 24:0.26899 25:0.054143 26:0.37887 27:0.7248 28:0.5666 29:0.57917 30:0.24826 31:0.86441 32:0.40234 33:0.46257 34:0.5027 35:0.037526 36:0.70424 37:0.42259 38:0.026794 39:0.81235 40:0.73261 41:0.46274 42:0.3683 43:0.11476 44:0.26899 45:0.054143 46:0.37887 47:0.7248 48:0.5666 49:0.57917 50:0.24826 51:0.86441 52:0.40234 53:0.46257 54:0.5027 55:0.037526 56:0.70424 57:0.42259 58:0.026794 59:0.81235 60:0.73261 
10 1:0.36998 2:0.86511 3:0.46536 4:0.04778 5:0.027825 6:0.20961 7:0.19638 8:0.77309 9:0.19027 10:0.31989 11:0.62755 12:0.61842 13:0.28431 14:0.60016 15:0.18958 16:0.53669 17:0.55046 18:0.37721 19:0.66714 20:0.76455 21:0.36998 22:0.86511 23:0.46536 24:0.04778 25:0.027825 26:0.20961 27:0.19638 28:0.77309 29:0.19027 30:0.31989 31:0.62755 32:0.61842 33:0.28431 34:0.60016 35:0.18958 36:0.53669 37:0.55046 38:0.37721 39:0.66714 40:0.76455 41:0.36998 42:0.86511 43:0.46536 44:0.04778 45:0.027825 46:0.20961 47:0.19638 48:0.77309 49:0.19027 50:0.31989 51:0.62755 52:0.61842 53:0.28431 54:0.60016 55:0.18958 56:0.53669 57:0.55046 58:0.37721 59:0.66714 60:0.76455 
10 1:0.38515 2:0.29776 3:0.11476 4:0.25994 5:0.25565 6:0.29791 7:0.61162 8:0.73215 9:0.15585 10:0.37517 11:0.90693 12:0.35423 13:0.4214 14:0.7381 15:0.20219 16:0.5968 17:0.28268 18:0.23245 19:0.70632 20:0.68061 21:0.38515 22:0.29776 23:0.11476 24:0.25994 25:0.25565 26:0.29791 27:0.61162 28:0.73215 29:0.15585 30:0.37517 31:0.90693 32:0.35423 33:0.4214 34:0.7381 35:0.20219 36:0.5968 37:0.28268 38:0.23245 39:0.70632 40:0.68061 41:0.38515 42:0.29776 43:0.11476 44:0.25994 45:0.25565 46:0.29791 47:0.61162 48:0.73215 49:0.15585 50:0.37517 51:0.90693 52:0.35423 53:0.4214 54:0.7381 55:0.20219 56:0.5968 57:0.28268 58:0.23245 59:0.70632 60:0.68061 
10 1:0.54826 2:0.89452 3:0.34941 4:0.49668 5:0 6:0.36846 7:0.57584 8:0.70731 9:0.20112 10:0.056643 11:0.76377 12:0.78791 13:0.28431 14:0.48708 15:0.055252 16:0.67313 17:0.21966 18:0.099201 19:0.07422 20:0.39744 21:0.54826 22:0.89452 23:0.34941 24:0.49668 25:0 26:0.36846 27:0.57584 28:0.70731 29:0.20112 30:0.056643 31:0.76377 32:0.78791 33:0.28431 34:0.48708 35:0.055252 36:0.67313 37:0.21966 38:0.099201 39:0.07422 40:0.39744 41:0.54826 42:0.89452 43:0.34941 44:0.49668 45:0 46:0.36846 47:0.57584 48:0.70731 49:0.20112 50:0.056643 51:0.76377 52:0.78791 53:0.28431 54:0.48708 55:0.055252 56:0.67313 57:0.21966 58:0.099201 59:0.07422 60:0.39744 
10 1:0.19869 2:0.87066 3:0.68967 4:0.44012 5:0.20483 6:0.21781 7:0.46492 8:0.69857 9:0.23202 10:0.25387 11:0.81845 12:0.72169 13:0.19534 14:0.25203 15:0.088816 16:0.63755 17:0.46997 18:0.026794 19:0.73725 20:0.53306 21:0.19869 22:0.87066 23:0.68967 24:0.44012 25:0.20483 26:0.21781 27:0.46492 28:0.69857 29:0.23202 30:0.25387 31:0.81845 32:0.72169 33:0.19534 34:0.25203 35:0.088816 36:0.63755 37:0.46997 38:0.026794 39:0.73725 40:0.53306 41:0.19869 42:0.87066 43:0.68967 44:0.44012 45:0.20483 46:0.21781 47:0.46492 48:0.69857 49:0.23202 50:0.25387 51:0.81845 52:0.72169 53:0.19534 54:0.25203 55:0.088816 56:0.63755 57:0.46997 58:0.026794 59:0.73725 60:0.53306 
10 1:0.6022 2:0.42596 3:0.71124 4:0.13084 5:0.47013 6:0.050368 7:0.051507 8:0.60707 9:0.13123 10:0.38668 11:0.86441 12:0.34366 13:0.51441 14:0.44335 15:0.22626 16:0.54125 17:0.3659 18:0.57922 19:0.71308 20:0.61885 21:0.6022 22:0.42596 23:0.71124 24:0.13084 25:0.47013 26:0.050368 27:0.051507 28:0.60707 29:0.13123 30:0.38668 31:0.86441 32:0.34366 33:0.51441 34:0.44335 35:0.22626 36:0.54125 37:0.3659 38:0.57922 39:0.71308 40:0.61885 41:0.6022 42:0.42596 43:0.71124 44:0.13084 45:0.47013 46:0.050368 47:0.051507 48:0.60707 49:0.13123 50:0.38668 51:0.86441 52:0.34366 53:0.51441 54:0.44335 55:0.22626 56:0.54125 57:0.3659 58:0.57922 59:0.71308 60:0.61885 
10 1:0.42656 2:0 3:0.449 4:0 5:0.10272 6:0.013086 7:0 8:0.39528 9:0.15585 10:0.52399 11:0.92321 12:0 13:0.52954 14:0.63584 15:0.019122 16:0.50731 17:0.59411 18:0.026794 19:0.28615 20:0.84068 21:0.42656 22:0 23:0.449 24:0 25:0.10272 26:0.013086 27:0 28:0.39528 29:0.15585 30:0.52399 31:0.92321 32:0 33:0.52954 34:0.63584 35:0.019122 36:0.50731 37:0.59411 38:0.026794 39:0.28615 40:0.84068 41:0.42656 42:0 43:0.449 44:0 45:0.10272 46:0.013086 47:0 48:0.39528 49:0.15585 50:0.52399 51:0.92321 52:0 53:0.52954 54:0.63584 55:0.019122 56:0.50731 57:0.59411 58:0.026794 59:0.28615 60:0.84068 
10 1:0.6893 2:0.095846 3:0.06897 4:0.032369 5:0.63582 6:0.084936 7:0.14009 8:0.64815 9:0.016507 10:0.49257 11:0.89971 12:0.047498 13:0.3367 14:0.77431 15:0.12008 16:0.65371 17:0.51352 18:0.039659 19:0.24282 20:0.54909 21:0.6893 22:0.095846 23:0.06897 24:0.032369 25:0.63582 26:0.084936 27:0.14009 28:0.64815 29:0.016507 30:0.49257 31:0.89971 32:0.047498 33:0.3367 34:0.77431 35:0.12008 36:0.65371 37:0.51352 38:0.039659 39:0.24282 40:0.54909 41:0.6893 42:0.095846 43:0.06897 44:0.032369 45:0.63582 46:0.084936 47:0.14009 48:0.64815 49:0.016507 50:0.49257 51:0.89971 52:0.047498 53:0.3367 54:0.77431 55:0.12008 56:0.65371 57:0.51352 58:0.039659 59:0.24282 60:0.54909 
10 1:0.246 2:0 3:0.018183 4:0.016451 5:0.027825 6:0.013086 7:0 8:0.49254 9:0 10:0.13802 11:0.68156 12:0.024327 13:0.021593 14:0.28481 15:0.93974 16:0.13056 17:0.065745 18:0.013579 19:0.46862 20:0.3366 21:0.246 22:0 23:0.018183 24:0.016451 25:0.027825 26:0.013086 27:0 28:0.49254 29:0 30:0.13802 31:0.68156 32:0.024327 33:0.021593 34:0.28481 35:0.93974 36:0.13056 37:0.065745 38:0.013579 39:0.46862 40:0.3366 41:0.246 42:0 43:0.018183 44:0.016451 45:0.027825 46:0.013086 47:0 48:0.49254 49:0 50:0.13802 51:0.68156 52:0.024327 53:0.021593 54:0.28481 55:0.93974 56:0.13056 57:0.065745 58:0.013579 59:0.46862 60:0.3366 
10 1:0.74511 2:0 3:0.15626 4:0 5:0.67019 6:0.013086 7:0 8:0.67531 9:0 10:0.52399 11:0.79275 12:0.024327 13:0.13382 14:0.4617 15:0.037526 16:0.43575 17:0.19307 18:0.13151 19:0.62736 20:0.87261 21:0.74511 22:0 23:0.15626 24:0 25:0.67019 26:0.013086 27:0 28:0.67531 29:0 30:0.52399 31:0.79275 32:0.024327 33:0.13382 34:0.4617 35:0.037526 36:0.43575 37:0.19307 38:0.13151 39:0.62736 40:0.87261 41:0.74511 42:0 43:0.15626 44:0 45:0.67019 46:0.013086 47:0 48:0.67531 49:0 50:0.52399 51:0.79275 52:0.024327 53:0.13382 54:0.4617 55:0.037526 56:0.43575 57:0.19307 58:0.13151 59:0.62736 60:0.87261 
10 1:0.39486 2:0.32296 3:0.16924 4:0.16716 5:0.027825 6:0.39384 7:0.26089 8:0.40943 9:0.077422 10:0.24826 11:0.33374 12:0.18327 13:0.062098 14:0.13282 15:0.20219 16:0.91248 17:0.74168 18:0.026794 19:0.63817 20:0.38809 21:0.39486 22:0.32296 23:0.16924 24:0.16716 25:0.027825 26:0.39384 27:0.26089 28:0.40943 29:0.077422 30:0.24826 31:0.33374 32:0.18327 33:0.062098 34:0.13282 35:0.20219 36:0.91248 37:0.74168 38:0.026794 39:0.63817 40:0.38809 41:0.39486 42:0.32296 43:0.16924 44:0.16716 45:0.027825 46:0.39384 47:0.26089 48:0.40943 49:0.077422 50:0.24826 51:0.33374 52:0.18327 53:0.062098 54:0.13282 55:0.20219 56:0.91248 57:0.74168 58:0.026794 59:0.63817 60:0.38809 
10 1:0.40886 2:0.13719 3:0.052635 4:0.032369 5:0.027825 6:0.038258 7:0.075321 8:0.12177 9:0.032477 10:0.41194 11:0.63977 12:0.069594 13:0.30623 14:0.61433 15:0.16314 16:0.57081 17:0.23643 18:0.87906 19:0.76229 20:0.66429 21:0.40886 22:0.13719 23:0.052635 24:0.032369 25:0.027825 26:0.038258 27:0.075321 28:0.12177 29:0.032477 30:0.41194 31:0.63977 32:0.069594 33:0.30623 34:0.61433 35:0.16314 36:0.57081 37:0.23643 38:0.87906 39:0.76229 40:0.66429 41:0.40886 42:0.13719 43:0.052635 44:0.032369 45:0.027825 46:0.038258 47:0.075321 48:0.12177 49:0.032477 50:0.41194 51:0.63977 52:0.069594 53:0.30623 54:0.61433 55:0.16314 56:0.57081 57:0.23643 58:0.87906 59:0.76229 60:0.66429 
10 1:0.34856 2:0.095846 3:0.052635 4:0.032369 5:0.054143 6:0.17503 7:0.075321 8:0.31299 9:0.016507 10:0.27022 11:0.95536 12:0.047498 13:0.13382 14:0.85338 15:0.10472 16:0.32062 17:0.11243 18:0.064396 19:0.88709 20:0.60746 21:0.34856 22:0.095846 23:0.052635 24:0.032369 25:0.054143 26:0.17503 27:0.075321 28:0.31299 29:0.016507 30:0.27022 31:0.95536 32:0.047498 33:0.13382 34:0.85338 35:0.10472 36:0.32062 37:0.11243 38:0.064396 39:0.88709 40:0.60746 41:0.34856 42:0.095846 43:0.052635 44:0.032369 45:0.054143 46:0.17503 47:0.075321 48:0.31299 49:0.016507 50:0.27022 51:0.95536 52:0.047498 53:0.13382 54:0.85338 55:0.10472 56:0.32062 57:0.11243 58:0.064396 59:0.88709 60:0.60746 
10 1:0.037676 2:0.050335 3:0.33335 4:0 5:0.027825 6:0.013086 7:0.28941 8:0.33994 9:0.016507 10:0.13802 11:0.26703 12:0.024327 13:0.26097 14:0.72485 15:0.019122 16:0.59328 17:0.41305 18:0.89749 19:0.66714 20:0.31349 21:0.037676 22:0.050335 23:0.33335 24:0 25:0.027825 26:0.013086 27:0.28941 28:0.33994 29:0.016507 30:0.13802 31:0.26703 32:0.024327 33:0.26097 34:0.72485 35:0.019122 36:0.59328 37:0.41305 38:0.89749 39:0.66714 40:0.31349 41:0.037676 42:0.050335 43:0.33335 44:0 45:0.027825 46:0.013086 47:0.28941 48:0.33994 49:0.016507 50:0.13802 51:0.26703 52:0.024327 53:0.26097 54:0.72485 55:0.019122 56:0.59328 57:0.41305 58:0.89749 59:0.66714 60:0.31349 
10 1:0.69303 2:0.050335 3:0.035717 4:0.016451 5:0.27118 6:0.013086 7:0.24575 8:0.84996 9:0.016507 10:0.34227 11:0.8056 12:0.024327 13:0.11693 14:0.45268 15:0.055252 16:0.21806 17:0.38244 18:0.039659 19:0.24282 20:0.87094 21:0.69303 22:0.050335 23:0.035717 24:0.016451 25:0.27118 26:0.013086 27:0.24575 28:0.84996 29:0.016507 30:0.34227 31:0.8056 32:0.024327 33:0.11693 34:0.45268 35:0.055252 36:0.21806 37:0.38244 38:0.039659 39:0.24282 40:0.87094 41:0.69303 42:0.050335 43:0.035717 44:0.016451 45:0.27118 46:0.013086 47:0.24575 48:0.84996 49:0.016507 50:0.34227 51:0.8056 52:0.024327 53:0.11693 54:0.45268 55:0.055252 56:0.21806 57:0.38244 58:0.039659 59:0.24282 60:0.87094 
10 1:0.5317 2:0.050335 3:0.035717 4:0.016451 5:0.34001 6:0.013086 7:0.026434 8:0.17891 9:0 10:0.50019 11:0.8154 12:0.024327 13:0.26097 14:0.90216 15:0.055252 16:0.3994 17:0.74987 18:0.026794 19:0.80653 20:0.61133 21:0.5317 22:0.050335 23:0.035717 24:0.016451 25:0.34001 26:0.013086 27:0.026434 28:0.17891 29:0 30:0.50019 31:0.8154 32:0.024327 33:0.26097 34:0.90216 35:0.055252 36:0.3994 37:0.74987 38:0.026794 39:0.80653 40:0.61133 41:0.5317 42:0.050335 43:0.035717 44:0.016451 45:0.34001 46:0.013086 47:0.026434 48:0.17891 49:0 50:0.50019 51:0.8154 52:0.024327 53:0.26097 54:0.90216 55:0.055252 56:0.3994 57:0.74987 58:0.026794 59:0.80653 60:0.61133 
10 1:0.61029 2:0 3:0.018183 4:0 5:0.28607 6:0.013086 7:0 8:0.80912 9:0 10:0.62704 11:0.8752 12:0 13:0.3367 14:0.49501 15:0.037526 16:0.4618 17:0.39813 18:0.013579 19:0.13818 20:0.82035 21:0.61029 22:0 23:0.018183 24:0 25:0.28607 26:0.013086 27:0 28:0.80912 29:0 30:0.62704 31:0.8752 32:0 33:0.3367 34:0.49501 35:0.037526 36:0.4618 37:0.39813 38:0.013579 39:0.13818 40:0.82035 41:0.61029 42:0 43:0.018183 44:0 45:0.28607 46:0.013086 47:0 48:0.80912 49:0 50:0.62704 51:0.8752 52:0 53:0.3367 54:0.49501 55:0.037526 56:0.4618 57:0.39813 58:0.013579 59:0.13818 60:0.82035 
10 1:0.17274 2:0 3:0.018183 4:0 5:0.16691 6:0.20961 7:0.19638 8:0.12177 9:0.13123 10:0.2594 11:0.7612 12:0 13:0.91407 14:0.89032 15:0.037526 16:0.11403 17:0.089685 18:0.026794 19:0.75767 20:0.3582 21:0.17274 22:0 23:0.018183 24:0 25:0.16691 26:0.20961 27:0.19638 28:0.12177 29:0.13123 30:0.2594 31:0.7612 32:0 33:0.91407 34:0.89032 35:0.037526 36:0.11403 37:0.089685 38:0.026794 39:0.75767 40:0.3582 41:0.17274 42:0 43:0.018183 44:0 45:0.16691 46:0.20961 47:0.19638 48:0.12177 49:0.13123 50:0.2594 51:0.7612 52:0 53:0.91407 54:0.89032 55:0.037526 56:0.11403 57:0.089685 58:0.026794 59:0.75767 60:0.3582 
10 1:0.2151 2:0.095846 3:0.035717 4:0.016451 5:0.027825 6:0.1659 7:0.026434 8:0.073415 9:0.19027 10:0.27022 11:0.7109 12:0.047498 13:0.31669 14:0.9468 15:0.22626 16:0.096867 17:0.20213 18:0.1805 19:0.90291 20:0.64301 21:0.2151 22:0.095846 23:0.035717 24:0.016451 25:0.027825 26:0.1659 27:0.026434 28:0.073415 29:0.19027 30:0.27022 31:0.7109 32:0.047498 33:0.31669 34:0.9468 35:0.22626 36:0.096867 37:0.20213 38:0.1805 39:0.90291 40:0.64301 41:0.2151 42:0.095846 43:0.035717 44:0.016451 45:0.027825 46:0.1659 47:0.026434 48:0.073415 49:0.19027 50:0.27022 51:0.7109 52:0.047498 53:0.31669 54:0.9468 55:0.22626 56:0.096867 57:0.20213 58:0.1805 59:0.90291 60:0.64301 
10 1:0.14505 2:0.87973 3:0.11476 4:0.16716 5:0.3141 6:0.1659 7:0.45703 8:0.24066 9:0.26061 10:0.34657 11:0.8862 12:0.67942 13:0.46887 14:0.10916 15:0.4936 16:0.49118 17:0.70153 18:0.013579 19:0.59068 20:0.70892 21:0.14505 22:0.87973 23:0.11476 24:0.16716 25:0.3141 26:0.1659 27:0.45703 28:0.24066 29:0.26061 30:0.34657 31:0.8862 32:0.67942 33:0.46887 34:0.10916 35:0.4936 36:0.49118 37:0.70153 38:0.013579 39:0.59068 40:0.70892 41:0.14505 42:0.87973 43:0.11476 44:0.16716 45:0.3141 46:0.1659 47:0.45703 48:0.24066 49:0.26061 50:0.34657 51:0.8862 52:0.67942 53:0.46887 54:0.10916 55:0.4936 56:0.49118 57:0.70153 58:0.013579 59:0.59068 60:0.70892 
10 1:0.29459 2:0.59744 3:0.40661 4:0.11801 5:0.027825 6:0.050368 7:0.051507 8:0.47128 9:0.78613 10:0.28587 11:0.88794 12:0.1663 13:0.48692 14:0.55673 15:0.072337 16:0.51246 17:0.1838 18:0.15179 19:0.93382 20:0.60351 21:0.29459 22:0.59744 23:0.40661 24:0.11801 25:0.027825 26:0.050368 27:0.051507 28:0.47128 29:0.78613 30:0.28587 31:0.88794 32:0.1663 33:0.48692 34:0.55673 35:0.072337 36:0.51246 37:0.1838 38:0.15179 39:0.93382 40:0.60351 41:0.29459 42:0.59744 43:0.40661 44:0.11801 45:0.027825 46:0.050368 47:0.051507 48:0.47128 49:0.78613 50:0.28587 51:0.88794 52:0.1663 53:0.48692 54:0.55673 55:0.072337 56:0.51246 57:0.1838 58:0.15179 59:0.93382 60:0.60351 
10 1:0.35405 2:0.63624 3:0.16924 4:0.11801 5:0.027825 6:0.27774 7:0.026434 8:0.49254 9:0.22199 10:0.48472 11:0.8918 12:0.047498 13:0.42869 14:0.5027 15:0.055252 16:0.26722 17:0.62217 18:0.064396 19:0.94634 20:0.71928 21:0.35405 22:0.63624 23:0.16924 24:0.11801 25:0.027825 26:0.27774 27:0.026434 28:0.49254 29:0.22199 30:0.48472 31:0.8918 32:0.047498 33:0.42869 34:0.5027 35:0.055252 36:0.26722 37:0.62217 38:0.064396 39:0.94634 40:0.71928 41:0.35405 42:0.63624 43:0.16924 44:0.11801 45:0.027825 46:0.27774 47:0.026434 48:0.49254 49:0.22199 50:0.48472 51:0.8918 52:0.047498 53:0.42869 54:0.5027 55:0.055252 56:0.26722 57:0.62217 58:0.064396 59:0.94634 60:0.71928 
10 1:0.75172 2:0.050335 3:0.27028 4:0.016451 5:0.20483 6:0.038258 7:0.051507 8:0.74042 9:0.016507 10:0.5329 11:0.85057 12:0.024327 13:0.32684 14:0.55673 15:0.30957 16:0.5501 17:0.62015 18:0.11023 19:0.24282 20:0.64621 21:0.75172 22:0.050335 23:0.27028 24:0.016451 25:0.20483 26:0.038258 27:0.051507 28:0.74042 29:0.016507 30:0.5329 31:0.85057 32:0.024327 33:0.32684 34:0.55673 35:0.30957 36:0.5501 37:0.62015 38:0.11023 39:0.24282 40:0.64621 41:0.75172 42:0.050335 43:0.27028 44:0.016451 45:0.20483 46:0.038258 47:0.051507 48:0.74042 49:0.016507 50:0.5329 51:0.85057 52:0.024327 53:0.32684 54:0.55673 55:0.30957 56:0.5501 57:0.62015 58:0.11023 59:0.24282 60:0.64621 
10 1:0.64627 2:0 3:0.018183 4:0 5:0.34001 6:0.013086 7:0 8:0.79845 9:0 10:0.42875 11:0.89971 12:0 13:0.39835 14:0.77431 15:0.037526 16:0.42883 17:0.5987 18:0.013579 19:0.49033 20:0.63304 21:0.64627 22:0 23:0.018183 24:0 25:0.34001 26:0.013086 27:0 28:0.79845 29:0 30:0.42875 31:0.89971 32:0 33:0.39835 34:0.77431 35:0.037526 36:0.42883 37:0.5987 38:0.013579 39:0.49033 40:0.63304 41:0.64627 42:0 43:0.018183 44:0 45:0.34001 46:0.013086 47:0 48:0.79845 49:0 50:0.42875 51:0.89971 52:0 53:0.39835 54:0.77431 55:0.037526 56:0.42883 57:0.5987 58:0.013579 59:0.49033 60:0.63304 
10 1:0.82727 2:0 3:0.018183 4:0 5:0.65039 6:0.013086 7:0 8:0.60399 9:0 10:0.30571 11:0.69902 12:0 13:0.11693 14:0.80757 15:0.019122 16:0.71508 17:0.54469 18:0.11023 19:0.28615 20:0.44807 21:0.82727 22:0 23:0.018183 24:0 25:0.65039 26:0.013086 27:0 28:0.60399 29:0 30:0.30571 31:0.69902 32:0 33:0.11693 34:0.80757 35:0.019122 36:0.71508 37:0.54469 38:0.11023 39:0.28615 40:0.44807 41:0.82727 42:0 43:0.018183 44:0 45:0.65039 46:0.013086 47:0 48:0.60399 49:0 50:0.30571 51:0.69902 52:0 53:0.11693 54:0.80757 55:0.019122 56:0.71508 57:0.54469 58:0.11023 59:0.28615 60:0.44807 
10 1:0.44323 2:0 3:0.018183 4:0 5:0.25565 6:0 7:0 8:0.13679 9:0 10:0.65534 11:0.90451 12:0 13:0.45612 14:0.71525 15:0.037526 16:0.33986 17:0.39299 18:0.08789 19:0.8956 20:0.84322 21:0.44323 22:0 23:0.018183 24:0 25:0.25565 26:0 27:0 28:0.13679 29:0 30:0.65534 31:0.90451 32:0 33:0.45612 34:0.71525 35:0.037526 36:0.33986 37:0.39299 38:0.08789 39:0.8956 40:0.84322 41:0.44323 42:0 43:0.018183 44:0 45:0.25565 46:0 47:0 48:0.13679 49:0 50:0.65534 51:0.90451 52:0 53:0.45612 54:0.71525 55:0.037526 56:0.33986 57:0.39299 58:0.08789 59:0.8956 60:0.84322 
10 1:0.27455 2:0.050335 3:0.018183 4:0 5:0.10272 6:0.013086 7:0.026434 8:0.22906 9:0.11838 10:0.18044 11:0.91585 12:0.024327 13:0.5483 14:0.92031 15:0.019122 16:0.26722 17:0.28985 18:0.039659 19:0.91977 20:0.57805 21:0.27455 22:0.050335 23:0.018183 24:0 25:0.10272 26:0.013086 27:0.026434 28:0.22906 29:0.11838 30:0.18044 31:0.91585 32:0.024327 33:0.5483 34:0.92031 35:0.019122 36:0.26722 37:0.28985 38:0.039659 39:0.91977 40:0.57805 41:0.27455 42:0.050335 43:0.018183 44:0 45:0.10272 46:0.013086 47:0.026434 48:0.22906 49:0.11838 50:0.18044 51:0.91585 52:0.024327 53:0.5483 54:0.92031 55:0.019122 56:0.26722 57:0.28985 58:0.039659 59:0.91977 60:0.57805 
10 1:0.76395 2:0.73377 3:0.15626 4:0 5:0.23945 6:0.20124 7:0.24575 8:0.53464 9:0 10:0.27022 11:0.86098 12:0 13:0.11693 14:0.65869 15:0.019122 16:0.65878 17:0.63759 18:0.013579 19:0.87461 20:0.52746 21:0.76395 22:0.73377 23:0.15626 24:0 25:0.23945 26:0.20124 27:0.24575 28:0.53464 29:0 30:0.27022 31:0.86098 32:0 33:0.11693 34:0.65869 35:0.019122 36:0.65878 37:0.63759 38:0.013579 39:0.87461 40:0.52746 41:0.76395 42:0.73377 43:0.15626 44:0 45:0.23945 46:0.20124 47:0.24575 48:0.53464 49:0 50:0.27022 51:0.86098 52:0 53:0.11693 54:0.65869 55:0.019122 56:0.65878 57:0.63759 58:0.013579 59:0.87461 60:0.52746 
10 1:0.86642 2:0.8439 3:0.06897 4:0.032369 5:0.079073 6:0.15657 7:0.24575 8:0.53464 9:0.032477 10:0.21272 11:0.71832 12:0.29769 13:0.24871 14:0.67564 15:0.072337 16:0.33038 17:0.32365 18:0.16158 19:0.54598 20:0.44807 21:0.86642 22:0.8439 23:0.06897 24:0.032369 25:0.079073 26:0.15657 27:0.24575 28:0.53464 29:0.032477 30:0.21272 31:0.71832 32:0.29769 33:0.24871 34:0.67564 35:0.072337 36:0.33038 37:0.32365 38:0.16158 39:0.54598 40:0.44807 41:0.86642 42:0.8439 43:0.06897 44:0.032369 45:0.079073 46:0.15657 47:0.24575 48:0.53464 49:0.032477 50:0.21272 51:0.71832 52:0.29769 53:0.24871 54:0.67564 55:0.072337 56:0.33038 57:0.32365 58:0.16158 59:0.54598 60:0.44807 
10 1:0.38515 2:0.48824 3:0.35716 4:0.032369 5:0.027825 6:0.47046 7:0.423 8:0.28375 9:0.43568 10:0.51475 11:0.91896 12:0.069594 13:0.26097 14:0.76283 15:0.037526 16:0.34908 17:0.089685 18:0.58875 19:0.82548 20:0.61513 21:0.38515 22:0.48824 23:0.35716 24:0.032369 25:0.027825 26:0.47046 27:0.423 28:0.28375 29:0.43568 30:0.51475 31:0.91896 32:0.069594 33:0.26097 34:0.76283 35:0.037526 36:0.34908 37:0.089685 38:0.58875 39:0.82548 40:0.61513 41:0.38515 42:0.48824 43:0.35716 44:0.032369 45:0.027825 46:0.47046 47:0.423 48:0.28375 49:0.43568 50:0.51475 51:0.91896 52:0.069594 53:0.26097 54:0.76283 55:0.037526 56:0.34908 57:0.089685 58:0.58875 59:0.82548 60:0.61513 
10 1:0.49128 2:0.17493 3:0.45456 4:0.39478 5:0.027825 6:0.038258 7:0.097969 8:0.92824 9:0.032477 10:0.019622 11:0.40585 12:0.24479 13:0.021593 14:0.057729 15:0.088816 16:0.20472 17:0.48903 18:0.013579 19:0.52883 20:0.50984 21:0.49128 22:0.17493 23:0.45456 24:0.39478 25:0.027825 26:0.038258 27:0.097969 28:0.92824 29:0.032477 30:0.019622 31:0.40585 32:0.24479 33:0.021593 34:0.057729 35:0.088816 36:0.20472 37:0.48903 38:0.013579 39:0.52883 40:0.50984 41:0.49128 42:0.17493 43:0.45456 44:0.39478 45:0.027825 46:0.038258 47:0.097969 48:0.92824 49:0.032477 50:0.019622 51:0.40585 52:0.24479 53:0.021593 54:0.057729 55:0.088816 56:0.20472 57:0.48903 58:0.013579 59:0.52883 60:0.50984 
10 1:0.57577 2:0.17493 3:0.035717 4:0 5:0.27118 6:0.025835 7:0.026434 8:0.46568 9:0.016507 10:0.76147 11:0.89688 12:0.047498 13:0.39835 14:0.23449 15:0.019122 16:0.19092 17:0.19307 18:0.039659 19:0.28615 20:0.85943 21:0.57577 22:0.17493 23:0.035717 24:0 25:0.27118 26:0.025835 27:0.026434 28:0.46568 29:0.016507 30:0.76147 31:0.89688 32:0.047498 33:0.39835 34:0.23449 35:0.019122 36:0.19092 37:0.19307 38:0.039659 39:0.28615 40:0.85943 41:0.57577 42:0.17493 43:0.035717 44:0 45:0.27118 46:0.025835 47:0.026434 48:0.46568 49:0.016507 50:0.76147 51:0.89688 52:0.047498 53:0.39835 54:0.23449 55:0.019122 56:0.19092 57:0.19307 58:0.039659 59:0.28615 60:0.85943 
10 1:0.43915 2:0.44291 3:0.64708 4:0.88037 5:0.25565 6:0.44308 7:0.67358 8:0.67738 9:0.20112 10:0.029147 11:0.35336 12:0.24479 13:0.22294 14:0.21611 15:0.019122 16:0.23096 17:0.30377 18:0.013579 19:0.52883 20:0.092128 21:0.43915 22:0.44291 23:0.64708 24:0.88037 25:0.25565 26:0.44308 27:0.67358 28:0.67738 29:0.20112 30:0.029147 31:0.35336 32:0.24479 33:0.22294 34:0.21611 35:0.019122 36:0.23096 37:0.30377 38:0.013579 39:0.52883 40:0.092128 41:0.43915 42:0.44291 43:0.64708 44:0.88037 45:0.25565 46:0.44308 47:0.67358 48:0.67738 49:0.20112 50:0.029147 51:0.35336 52:0.24479 53:0.22294 54:0.21611 55:0.019122 56:0.23096 57:0.30377 58:0.013579 59:0.52883 60:0.092128 
10 1:0.15448 2:0.050335 3:0.035717 4:0 5:0.27118 6:0.025835 7:0 8:0.25191 9:0.26061 10:0.69528 11:0.94482 12:0.024327 13:0.44952 14:0.605 15:0.037526 16:0.14647 17:0.11243 18:0.039659 19:0.35946 20:0.84132 21:0.15448 22:0.050335 23:0.035717 24:0 25:0.27118 26:0.025835 27:0 28:0.25191 29:0.26061 30:0.69528 31:0.94482 32:0.024327 33:0.44952 34:0.605 35:0.037526 36:0.14647 37:0.11243 38:0.039659 39:0.35946 40:0.84132 41:0.15448 42:0.050335 43:0.035717 44:0 45:0.27118 46:0.025835 47:0 48:0.25191 49:0.26061 50:0.69528 51:0.94482 52:0.024327 53:0.44952 54:0.605 55:0.037526 56:0.14647 57:0.11243 58:0.039659 59:0.35946 60:0.84132 
10 1:0.246 2:0.050335 3:0.018183 4:0 5:0 6:0.013086 7:0 8:0.20477 9:0 10:0.019622 11:0.2907 12:0.024327 13:0.021593 14:0.029722 15:0.94568 16:0.33986 17:0.27537 18:0 19:0 20:0.048288 21:0.246 22:0.050335 23:0.018183 24:0 25:0 26:0.013086 27:0 28:0.20477 29:0 30:0.019622 31:0.2907 32:0.024327 33:0.021593 34:0.029722 35:0.94568 36:0.33986 37:0.27537 38:0 39:0 40:0.048288 41:0.246 42:0.050335 43:0.018183 44:0 45:0 46:0.013086 47:0 48:0.20477 49:0 50:0.019622 51:0.2907 52:0.024327 53:0.021593 54:0.029722 55:0.94568 56:0.33986 57:0.27537 58:0 59:0 60:0.048288 
8.334895894519661 1:0.43915 2:0.050335 3:0.018183 4:0 5:0.18631 6:0.013086 7:0.026434 8:0.26283 9:0.016507 10:0.55175 11:0.95785 12:0 13:0.50915 14:0.48708 15:0.10472 16:0.44908 17:0.3659 18:0.39283 19:0.24282 20:0.64936 21:0.43915 22:0.050335 23:0.018183 24:0 25:0.18631 26:0.013086 27:0.026434 28:0.26283 29:0.016507 30:0.55175 31:0.95785 32:0 33:0.50915 34:0.48708 35:0.10472 36:0.44908 37:0.3659 38:0.39283 39:0.24282 40:0.64936 41:0.43915 42:0.050335 43:0.018183 44:0 45:0.18631 46:0.013086 47:0.026434 48:0.26283 49:0.016507 50:0.55175 51:0.95785 52:0 53:0.50915 54:0.48708 55:0.10472 56:0.44908 57:0.3659 58:0.39283 59:0.24282 60:0.64936 
10 1:0.33729 2:0.050335 3:0.018183 4:0 5:0.054143 6:0.11708 7:0 8:0.32221 9:0.10513 10:0.61258 11:0.93094 12:0 13:0.43581 14:0.63986 15:0.037526 16:0.11403 17:0.46997 18:0.08789 19:0.89382 20:0.82435 21:0.33729 22:0.050335 23:0.018183 24:0 25:0.054143 26:0.11708 27:0 28:0.32221 29:0.10513 30:0.61258 31:0.93094 32:0 33:0.43581 34:0.63986 35:0.037526 36:0.11403 37:0.46997 38:0.08789 39:0.89382 40:0.82435 41:0.33729 42:0.050335 43:0.018183 44:0 45:0.054143 46:0.11708 47:0 48:0.32221 49:0.10513 50:0.61258 51:0.93094 52:0 53:0.43581 54:0.63986 55:0.037526 56:0.11403 57:0.46997 58:0.08789 59:0.89382 60:0.82435 
10 1:0.5827 2:0.85692 3:0.28001 4:0.18973 5:0.35225 6:0.27774 7:0.075321 8:0.57748 9:0.16764 10:0.40138 11:0.7109 12:0.7255 13:0.3367 14:0.6514 15:0.10472 16:0.56682 17:0.57971 18:0.31882 19:0.69924 20:0.64936 21:0.5827 22:0.85692 23:0.28001 24:0.18973 25:0.35225 26:0.27774 27:0.075321 28:0.57748 29:0.16764 30:0.40138 31:0.7109 32:0.7255 33:0.3367 34:0.6514 35:0.10472 36:0.56682 37:0.57971 38:0.31882 39:0.69924 40:0.64936 41:0.5827 42:0.85692 43:0.28001 44:0.18973 45:0.35225 46:0.27774 47:0.075321 48:0.57748 49:0.16764 50:0.40138 51:0.7109 52:0.7255 53:0.3367 54:0.6514 55:0.10472 56:0.56682 57:0.57971 58:0.31882 59:0.69924 60:0.64936 
10 1:0.59376 2:0.17493 3:0.49058 4:0.04778 5:0.20483 6:0.32312 7:0.24575 8:0.12177 9:0.26061 10:0.42215 11:0.9408 12:0.42792 13:0.58924 14:0.5027 15:0.20219 16:0.42883 17:0.49268 18:0.039659 19:0.32479 20:0.62959 21:0.59376 22:0.17493 23:0.49058 24:0.04778 25:0.20483 26:0.32312 27:0.24575 28:0.12177 29:0.26061 30:0.42215 31:0.9408 32:0.42792 33:0.58924 34:0.5027 35:0.20219 36:0.42883 37:0.49268 38:0.039659 39:0.32479 40:0.62959 41:0.59376 42:0.17493 43:0.49058 44:0.04778 45:0.20483 46:0.32312 47:0.24575 48:0.12177 49:0.26061 50:0.42215 51:0.9408 52:0.42792 53:0.58924 54:0.5027 55:0.20219 56:0.42883 57:0.49268 58:0.039659 59:0.32479 60:0.62959 
10 1:0.82164 2:0.13719 3:0.20589 4:0.032369 5:0.22252 6:0.038258 7:0.051507 8:0.69493 9:0.016507 10:0.27551 11:0.85829 12:0.047498 13:0.62954 14:0.55673 15:0.24892 16:0.61351 17:0.2679 18:0.15179 19:0.7316 20:0.53306 21:0.82164 22:0.13719 23:0.20589 24:0.032369 25:0.22252 26:0.038258 27:0.051507 28:0.69493 29:0.016507 30:0.27551 31:0.85829 32:0.047498 33:0.62954 34:0.55673 35:0.24892 36:0.61351 37:0.2679 38:0.15179 39:0.7316 40:0.53306 41:0.82164 42:0.13719 43:0.20589 44:0.032369 45:0.22252 46:0.038258 47:0.051507 48:0.69493 49:0.016507 50:0.27551 51:0.85829 52:0.047498 53:0.62954 54:0.55673 55:0.24892 56:0.61351 57:0.2679 58:0.15179 59:0.7316 60:0.53306 
7.936906238965038 1:0.59803 2:0 3:0.018183 4:0 5:0.28607 6:0.013086 7:0.72273 8:0.27344 9:0.10513 10:0.52399 11:0.89541 12:0 13:0.41391 14:0.65869 15:0.055252 16:0.26722 17:0.21966 18:0.44818 19:0.69924 20:0.85204 21:0.59803 22:0 23:0.018183 24:0 25:0.28607 26:0.013086 27:0.72273 28:0.27344 29:0.10513 30:0.52399 31:0.89541 32:0 33:0.41391 34:0.65869 35:0.055252 36:0.26722 37:0.21966 38:0.44818 39:0.69924 40:0.85204 41:0.59803 42:0 43:0.018183 44:0 45:0.28607 46:0.013086 47:0.72273 48:0.27344 49:0.10513 50:0.52399 51:0.89541 52:0 53:0.41391 54:0.65869 55:0.055252 56:0.26722 57:0.21966 58:0.44818 59:0.69924 60:0.85204 
10 1:0.62369 2:0 3:0.018183 4:0 5:0.63582 6:0.013086 7:0 8:0.70213 9:0 10:0.19366 11:0.82285 12:0 13:0.26097 14:0.66222 15:0.13492 16:0.73303 17:0.80045 18:0.20732 19:0.19388 20:0.52173 21:0.62369 22:0 23:0.018183 24:0 25:0.63582 26:0.013086 27:0 28:0.70213 29:0 30:0.19366 31:0.82285 32:0 33:0.26097 34:0.66222 35:0.13492 36:0.73303 37:0.80045 38:0.20732 39:0.19388 40:0.52173 41:0.62369 42:0 43:0.018183 44:0 45:0.63582 46:0.013086 47:0 48:0.70213 49:0 50:0.19366 51:0.82285 52:0 53:0.26097 54:0.66222 55:0.13492 56:0.73303 57:0.80045 58:0.20732 59:0.19388 60:0.52173 
10 1:0.59591 2:0.13719 3:0.18183 4:0.016451 5:0.25565 6:0.19269 7:0.17845 8:0.090114 9:0.032477 10:0.46543 11:0.92892 12:0.047498 13:0.55275 14:0.77586 15:0.037526 16:0.60365 17:0.089685 18:0.039659 19:0.80349 20:0.78855 21:0.59591 22:0.13719 23:0.18183 24:0.016451 25:0.25565 26:0.19269 27:0.17845 28:0.090114 29:0.032477 30:0.46543 31:0.92892 32:0.047498 33:0.55275 34:0.77586 35:0.037526 36:0.60365 37:0.089685 38:0.039659 39:0.80349 40:0.78855 41:0.59591 42:0.13719 43:0.18183 44:0.016451 45:0.25565 46:0.19269 47:0.17845 48:0.090114 49:0.032477 50:0.46543 51:0.92892 52:0.047498 53:0.55275 54:0.77586 55:0.037526 56:0.60365 57:0.089685 58:0.039659 59:0.80349 60:0.78855 
10 1:0.48094 2:0.64312 3:0.52214 4:0.28644 5:0.027825 6:0.2337 7:0.4319 8:0.74944 9:0.062912 10:0.37517 11:0.81845 12:0.1663 13:0.062098 14:0.44335 15:0.58396 16:0.64848 17:0.60972 18:0.49073 19:0.52883 20:0.58252 21:0.48094 22:0.64312 23:0.52214 24:0.28644 25:0.027825 26:0.2337 27:0.4319 28:0.74944 29:0.062912 30:0.37517 31:0.81845 32:0.1663 33:0.062098 34:0.44335 35:0.58396 36:0.64848 37:0.60972 38:0.49073 39:0.52883 40:0.58252 41:0.48094 42:0.64312 43:0.52214 44:0.28644 45:0.027825 46:0.2337 47:0.4319 48:0.74944 49:0.062912 50:0.37517 51:0.81845 52:0.1663 53:0.062098 54:0.44335 55:0.58396 56:0.64848 57:0.60972 58:0.49073 59:0.52883 60:0.58252 
10 1:0.60012 2:0.79237 3:0.34941 4:0.46034 5:0.027825 6:0.51161 7:0.57584 8:0.47128 9:0.21169 10:0.32449 11:0.81063 12:0.19957 13:0.46887 14:0.51741 15:0.43191 16:0.30022 17:0.62417 18:0.23245 19:0.41912 20:0.73078 21:0.60012 22:0.79237 23:0.34941 24:0.46034 25:0.027825 26:0.51161 27:0.57584 28:0.47128 29:0.21169 30:0.32449 31:0.81063 32:0.19957 33:0.46887 34:0.51741 35:0.43191 36:0.30022 37:0.62417 38:0.23245 39:0.41912 40:0.73078 41:0.60012 42:0.79237 43:0.34941 44:0.46034 45:0.027825 46:0.51161 47:0.57584 48:0.47128 49:0.21169 50:0.32449 51:0.81063 52:0.19957 53:0.46887 54:0.51741 55:0.43191 56:0.30022 57:0.62417 58:0.23245 59:0.41912 60:0.73078 
10 1:0.34297 2:0 3:0.018183 4:0 5:0.37541 6:0.013086 7:0.15971 8:0.53889 9:0.016507 10:0.065466 11:0.72189 12:0 13:0.3367 14:0.87983 15:0.019122 16:0.041138 17:0.065745 18:0.82047 19:0.93715 20:0.31349 21:0.34297 22:0 23:0.018183 24:0 25:0.37541 26:0.013086 27:0.15971 28:0.53889 29:0.016507 30:0.065466 31:0.72189 32:0 33:0.3367 34:0.87983 35:0.019122 36:0.041138 37:0.065745 38:0.82047 39:0.93715 40:0.31349 41:0.34297 42:0 43:0.018183 44:0 45:0.37541 46:0.013086 47:0.15971 48:0.53889 49:0.016507 50:0.065466 51:0.72189 52:0 53:0.3367 54:0.87983 55:0.019122 56:0.041138 57:0.065745 58:0.82047 59:0.93715 60:0.31349 
10 1:0.11544 2:0.050335 3:0.018183 4:0 5:0.027825 6:0.013086 7:0.026434 8:0.68145 9:0.032477 10:0.10721 11:0.67687 12:0.024327 13:0.042274 14:0.92835 15:0.037526 16:0.21806 17:0.43633 18:0.55059 19:0.94611 20:0.26208 21:0.11544 22:0.050335 23:0.018183 24:0 25:0.027825 26:0.013086 27:0.026434 28:0.68145 29:0.032477 30:0.10721 31:0.67687 32:0.024327 33:0.042274 34:0.92835 35:0.037526 36:0.21806 37:0.43633 38:0.55059 39:0.94611 40:0.26208 41:0.11544 42:0.050335 43:0.018183 44:0 45:0.027825 46:0.013086 47:0.026434 48:0.68145 49:0.032477 50:0.10721 51:0.67687 52:0.024327 53:0.042274 54:0.92835 55:0.037526 56:0.21806 57:0.43633 58:0.55059 59:0.94611 60:0.26208 
10 1:0.55353 2:0 3:0.10001 4:0.16716 5:0.79913 6:0.013086 7:0 8:0.5214 9:0.14372 10:0.37906 11:0.79078 12:0 13:0.75549 14:0.64763 15:0.037526 16:0.54572 17:0.67712 18:0.23245 19:0.13818 20:0.72706 21:0.55353 22:0 23:0.10001 24:0.16716 25:0.79913 26:0.013086 27:0 28:0.5214 29:0.14372 30:0.37906 31:0.79078 32:0 33:0.75549 34:0.64763 35:0.037526 36:0.54572 37:0.67712 38:0.23245 39:0.13818 40:0.72706 41:0.55353 42:0 43:0.10001 44:0.16716 45:0.79913 46:0.013086 47:0 48:0.5214 49:0.14372 50:0.37906 51:0.79078 52:0 53:0.75549 54:0.64763 55:0.037526 56:0.54572 57:0.67712 58:0.23245 59:0.13818 60:0.72706 
10 1:0.8253 2:0.050335 3:0.052635 4:0.016451 5:0.61152 6:0.025835 7:0.026434 8:0.76241 9:0.016507 10:0.056643 11:0.67205 12:0 13:0.27283 14:0.78185 15:0.52192 16:0.59328 17:0.38776 18:0.013579 19:0.61589 20:0.49733 21:0.8253 22:0.050335 23:0.052635 24:0.016451 25:0.61152 26:0.025835 27:0.026434 28:0.76241 29:0.016507 30:0.056643 31:0.67205 32:0 33:0.27283 34:0.78185 35:0.52192 36:0.59328 37:0.38776 38:0.013579 39:0.61589 40:0.49733 41:0.8253 42:0.050335 43:0.052635 44:0.016451 45:0.61152 46:0.025835 47:0.026434 48:0.76241 49:0.016507 50:0.056643 51:0.67205 52:0 53:0.27283 54:0.78185 55:0.52192 56:0.59328 57:0.38776 58:0.013579 59:0.61589 60:0.49733 
10 1:0.1354 2:0.050335 3:0.018183 4:0 5:0.23945 6:0.31699 7:0.24575 8:0.44206 9:0.28715 10:0.056643 11:0.71832 12:0 13:0.52954 14:0.92089 15:0 16:0.14647 17:0.040513 18:0.65349 19:0.94317 20:0.27564 21:0.1354 22:0.050335 23:0.018183 24:0 25:0.23945 26:0.31699 27:0.24575 28:0.44206 29:0.28715 30:0.056643 31:0.71832 32:0 33:0.52954 34:0.92089 35:0 36:0.14647 37:0.040513 38:0.65349 39:0.94317 40:0.27564 41:0.1354 42:0.050335 43:0.018183 44:0 45:0.23945 46:0.31699 47:0.24575 48:0.44206 49:0.28715 50:0.056643 51:0.71832 52:0 53:0.52954 54:0.92089 55:0 56:0.14647 57:0.040513 58:0.65349 59:0.94317 60:0.27564 
10 1:0.56861 2:0 3:0.14287 4:0 5:0.079073 6:0.013086 7:0 8:0.6732 9:0.28715 10:0.39042 11:0.80209 12:0 13:0.22294 14:0.75755 15:0.36902 16:0.37525 17:0.34846 18:0.32514 19:0.94517 20:0.78272 21:0.56861 22:0 23:0.14287 24:0 25:0.079073 26:0.013086 27:0 28:0.6732 29:0.28715 30:0.39042 31:0.80209 32:0 33:0.22294 34:0.75755 35:0.36902 36:0.37525 37:0.34846 38:0.32514 39:0.94517 40:0.78272 41:0.56861 42:0 43:0.14287 44:0 45:0.079073 46:0.013086 47:0 48:0.6732 49:0.28715 50:0.39042 51:0.80209 52:0 53:0.22294 54:0.75755 55:0.36902 56:0.37525 57:0.34846 58:0.32514 59:0.94517 60:0.78272 
10 1:0.54013 2:0.050335 3:0.035717 4:0.016451 5:0.3273 6:0.18395 7:0.34032 8:0.47128 9:0.11838 10:0.54973 11:0.92823 12:0.024327 13:0.50915 14:0.63986 15:0.037526 16:0.36676 17:0.2679 18:0.20732 19:0.684 20:0.82743 21:0.54013 22:0.050335 23:0.035717 24:0.016451 25:0.3273 26:0.18395 27:0.34032 28:0.47128 29:0.11838 30:0.54973 31:0.92823 32:0.024327 33:0.50915 34:0.63986 35:0.037526 36:0.36676 37:0.2679 38:0.20732 39:0.684 40:0.82743 41:0.54013 42:0.050335 43:0.035717 44:0.016451 45:0.3273 46:0.18395 47:0.34032 48:0.47128 49:0.11838 50:0.54973 51:0.92823 52:0.024327 53:0.50915 54:0.63986 55:0.037526 56:0.36676 57:0.2679 58:0.20732 59:0.684 60:0.82743 
10 1:0.44323 2:0.050335 3:0.20589 4:0.016451 5:0.30036 6:0.013086 7:0.026434 8:0.090114 9:0.10513 10:0.50757 11:0.95856 12:0.024327 13:0.62649 14:0.66568 15:0.037526 16:0.28956 17:0.13406 18:0.026794 19:0.71308 20:0.65848 21:0.44323 22:0.050335 23:0.20589 24:0.016451 25:0.30036 26:0.013086 27:0.026434 28:0.090114 29:0.10513 30:0.50757 31:0.95856 32:0.024327 33:0.62649 34:0.66568 35:0.037526 36:0.28956 37:0.13406 38:0.026794 39:0.71308 40:0.65848 41:0.44323 42:0.050335 43:0.20589 44:0.016451 45:0.30036 46:0.013086 47:0.026434 48:0.090114 49:0.10513 50:0.50757 51:0.95856 52:0.024327 53:0.62649 54:0.66568 55:0.037526 56:0.28956 57:0.13406 58:0.026794 59:0.71308 60:0.65848 
10 1:0.69787 2:0.9274 3:0.06897 4:0.032369 5:0.47804 6:0.14703 7:0.075321 8:0.35676 9:0.032477 10:0.30086 11:0.78672 12:0.47985 13:0.27283 14:0.51741 15:0.072337 16:0.68205 17:0.29688 18:0.31882 19:0.78668 20:0.64621 21:0.69787 22:0.9274 23:0.06897 24:0.032369 25:0.47804 26:0.14703 27:0.075321 28:0.35676 29:0.032477 30:0.30086 31:0.78672 32:0.47985 33:0.27283 34:0.51741 35:0.072337 36:0.68205 37:0.29688 38:0.31882 39:0.78668 40:0.64621 41:0.69787 42:0.9274 43:0.06897 44:0.032369 45:0.47804 46:0.14703 47:0.075321 48:0.35676 49:0.032477 50:0.30086 51:0.78672 52:0.47985 53:0.27283 54:0.51741 55:0.072337 56:0.68205 57:0.29688 58:0.31882 59:0.78668 60:0.64621 
10 1:0.56369 2:0.32296 3:0.70969 4:0.11801 5:0.50748 6:0.050368 7:0.051507 8:0.63011 9:0.13123 10:0.40846 11:0.84955 12:0.29769 13:0.51956 14:0.42369 15:0.18958 16:0.57473 17:0.42259 18:0.61286 19:0.56193 20:0.64936 21:0.56369 22:0.32296 23:0.70969 24:0.11801 25:0.50748 26:0.050368 27:0.051507 28:0.63011 29:0.13123 30:0.40846 31:0.84955 32:0.29769 33:0.51956 34:0.42369 35:0.18958 36:0.57473 37:0.42259 38:0.61286 39:0.56193 40:0.64936 41:0.56369 42:0.32296 43:0.70969 44:0.11801 45:0.50748 46:0.050368 47:0.051507 48:0.63011 49:0.13123 50:0.40846 51:0.84955 52:0.29769 53:0.51956 54:0.42369 55:0.18958 56:0.57473 57:0.42259 58:0.61286 59:0.56193 60:0.64936 
10 1:0.40427 2:0 3:0.4316 4:0 5:0.27118 6:0.013086 7:0 8:0.33994 9:0.14372 10:0.59857 11:0.92703 12:0 13:0.50915 14:0.57408 15:0.019122 16:0.44908 17:0.57467 18:0.026794 19:0.54598 20:0.82357 21:0.40427 22:0 23:0.4316 24:0 25:0.27118 26:0.013086 27:0 28:0.33994 29:0.14372 30:0.59857 31:0.92703 32:0 33:0.50915 34:0.57408 35:0.019122 36:0.44908 37:0.57467 38:0.026794 39:0.54598 40:0.82357 41:0.40427 42:0 43:0.4316 44:0 45:0.27118 46:0.013086 47:0 48:0.33994 49:0.14372 50:0.59857 51:0.92703 52:0 53:0.50915 54:0.57408 55:0.019122 56:0.44908 57:0.57467 58:0.026794 59:0.54598 60:0.82357 
3.32439909390028 1:0.47381 2:0.050335 3:0.035717 4:0 5:0.50043 6:0.013086 7:0 8:0.71394 9:0.016507 10:0.53936 11:0.93179 12:0 13:0.1808 14:0.60972 15:0.037526 16:0.7502 17:0.34243 18:0.026794 19:0.13818 20:0.71928 21:0.47381 22:0.050335 23:0.035717 24:0 25:0.50043 26:0.013086 27:0 28:0.71394 29:0.016507 30:0.53936 31:0.93179 32:0 33:0.1808 34:0.60972 35:0.037526 36:0.7502 37:0.34243 38:0.026794 39:0.13818 40:0.71928 41:0.47381 42:0.050335 43:0.035717 44:0 45:0.50043 46:0.013086 47:0 48:0.71394 49:0.016507 50:0.53936 51:0.93179 52:0 53:0.1808 54:0.60972 55:0.037526 56:0.7502 57:0.34243 58:0.026794 59:0.13818 60:0.71928 
10 1:0.66337 2:0.095846 3:0.18183 4:0.032369 5:0.62806 6:0.084936 7:0.11953 8:0.66673 9:0.016507 10:0.50757 11:0.88851 12:0.047498 13:0.24871 14:0.77431 15:0.12008 16:0.62592 17:0.55328 18:0.14177 19:0.24282 20:0.62608 21:0.66337 22:0.095846 23:0.18183 24:0.032369 25:0.62806 26:0.084936 27:0.11953 28:0.66673 29:0.016507 30:0.50757 31:0.88851 32:0.047498 33:0.24871 34:0.77431 35:0.12008 36:0.62592 37:0.55328 38:0.14177 39:0.24282 40:0.62608 41:0.66337 42:0.095846 43:0.18183 44:0.032369 45:0.62806 46:0.084936 47:0.11953 48:0.66673 49:0.016507 50:0.50757 51:0.88851 52:0.047498 53:0.24871 54:0.77431 55:0.12008 56:0.62592 57:0.55328 58:0.14177 59:0.24282 60:0.62608 
10 1:0.33729 2:0 3:0.018183 4:0.016451 5:0.027825 6:0.013086 7:0 8:0.38044 9:0 10:0.13802 11:0.69902 12:0.024327 13:0.021593 14:0.35542 15:0.93953 16:0.13056 17:0.065745 18:0.013579 19:0.44497 20:0.32524 21:0.33729 22:0 23:0.018183 24:0.016451 25:0.027825 26:0.013086 27:0 28:0.38044 29:0 30:0.13802 31:0.69902 32:0.024327 33:0.021593 34:0.35542 35:0.93953 36:0.13056 37:0.065745 38:0.013579 39:0.44497 40:0.32524 41:0.33729 42:0 43:0.018183 44:0.016451 45:0.027825 46:0.013086 47:0 48:0.38044 49:0 50:0.13802 51:0.69902 52:0.024327 53:0.021593 54:0.35542 55:0.93953 56:0.13056 57:0.065745 58:0.013579 59:0.44497 60:0.32524 
10 1:0.36476 2:0.050335 3:0.018183 4:0 5:0.054143 6:0.013086 7:0.026434 8:0.38044 9:0.016507 10:0.78131 11:0.89233 12:0 13:0.13382 14:0.51741 15:0.12008 16:0.19092 17:0.21099 18:0.026794 19:0.24282 20:0.88213 21:0.36476 22:0.050335 23:0.018183 24:0 25:0.054143 26:0.013086 27:0.026434 28:0.38044 29:0.016507 30:0.78131 31:0.89233 32:0 33:0.13382 34:0.51741 35:0.12008 36:0.19092 37:0.21099 38:0.026794 39:0.24282 40:0.88213 41:0.36476 42:0.050335 43:0.018183 44:0 45:0.054143 46:0.013086 47:0.026434 48:0.38044 49:0.016507 50:0.78131 51:0.89233 52:0 53:0.13382 54:0.51741 55:0.12008 56:0.19092 57:0.21099 58:0.026794 59:0.24282 60:0.88213 
10 1:0.74511 2:0 3:0.15626 4:0.13084 5:0.57874 6:0.013086 7:0 8:0.67108 9:0 10:0.48472 11:0.8073 12:0.024327 13:0.13382 14:0.44335 15:0.037526 16:0.45552 17:0.28985 18:0.099201 19:0.62736 20:0.87924 21:0.74511 22:0 23:0.15626 24:0.13084 25:0.57874 26:0.013086 27:0 28:0.67108 29:0 30:0.48472 31:0.8073 32:0.024327 33:0.13382 34:0.44335 35:0.037526 36:0.45552 37:0.28985 38:0.099201 39:0.62736 40:0.87924 41:0.74511 42:0 43:0.15626 44:0.13084 45:0.57874 46:0.013086 47:0 48:0.67108 49:0 50:0.48472 51:0.8073 52:0.024327 53:0.13382 54:0.44335 55:0.037526 56:0.45552 57:0.28985 58:0.099201 59:0.62736 60:0.87924 
10 1:0.10511 2:0.095846 3:0.084751 4:0.016451 5:0.027825 6:0.073696 7:0.28941 8:0.40943 9:0.077422 10:0.065466 11:0.62755 12:0.024327 13:0.11693 14:0.81726 15:0.13492 16:0.28956 17:0.089685 18:0.85802 19:0.95118 20:0.1508 21:0.10511 22:0.095846 23:0.084751 24:0.016451 25:0.027825 26:0.073696 27:0.28941 28:0.40943 29:0.077422 30:0.065466 31:0.62755 32:0.024327 33:0.11693 34:0.81726 35:0.13492 36:0.28956 37:0.089685 38:0.85802 39:0.95118 40:0.1508 41:0.10511 42:0.095846 43:0.084751 44:0.016451 45:0.027825 46:0.073696 47:0.28941 48:0.40943 49:0.077422 50:0.065466 51:0.62755 52:0.024327 53:0.11693 54:0.81726 55:0.13492 56:0.28956 57:0.089685 58:0.85802 59:0.95118 60:0.1508 
10 1:0.71996 2:0.095846 3:0.06897 4:0.1786 5:0.14656 6:0.18395 7:0.15971 8:0.77103 9:0.016507 10:0.54973 11:0.90324 12:0.047498 13:0.49828 14:0.67564 15:0.019122 16:0.36676 17:0.13406 18:0.039659 19:0.54598 20:0.68571 21:0.71996 22:0.095846 23:0.06897 24:0.1786 25:0.14656 26:0.18395 27:0.15971 28:0.77103 29:0.016507 30:0.54973 31:0.90324 32:0.047498 33:0.49828 34:0.67564 35:0.019122 36:0.36676 37:0.13406 38:0.039659 39:0.54598 40:0.68571 41:0.71996 42:0.095846 43:0.06897 44:0.1786 45:0.14656 46:0.18395 47:0.15971 48:0.77103 49:0.016507 50:0.54973 51:0.90324 52:0.047498 53:0.49828 54:0.67564 55:0.019122 56:0.36676 57:0.13406 58:0.039659 59:0.54598 60:0.68571 
10 1:0.5916 2:0.050335 3:0.052635 4:0 5:0.18631 6:0.025835 7:0.026434 8:0.12177 9:0.016507 10:0.60492 11:0.94523 12:0.024327 13:0.60012 14:0.71525 15:0.037526 16:0.14647 17:0.19307 18:0.039659 19:0.57679 20:0.77529 21:0.5916 22:0.050335 23:0.052635 24:0 25:0.18631 26:0.025835 27:0.026434 28:0.12177 29:0.016507 30:0.60492 31:0.94523 32:0.024327 33:0.60012 34:0.71525 35:0.037526 36:0.14647 37:0.19307 38:0.039659 39:0.57679 40:0.77529 41:0.5916 42:0.050335 43:0.052635 44:0 45:0.18631 46:0.025835 47:0.026434 48:0.12177 49:0.016507 50:0.60492 51:0.94523 52:0.024327 53:0.60012 54:0.71525 55:0.037526 56:0.14647 57:0.19307 58:0.039659 59:0.57679 60:0.77529 
10 1:0.69906 2:0.47397 3:0.26029 4:0.10481 5:0.027825 6:0.24897 7:0.26089 8:0.71555 9:0.047938 10:0.41879 11:0.82285 12:0.24479 13:0.52954 14:0.3799 15:0.45018 16:0.71156 17:0.56155 18:0.121 19:0.46862 20:0.67535 21:0.69906 22:0.47397 23:0.26029 24:0.10481 25:0.027825 26:0.24897 27:0.26089 28:0.71555 29:0.047938 30:0.41879 31:0.82285 32:0.24479 33:0.52954 34:0.3799 35:0.45018 36:0.71156 37:0.56155 38:0.121 39:0.46862 40:0.67535 41:0.69906 42:0.47397 43:0.26029 44:0.10481 45:0.027825 46:0.24897 47:0.26089 48:0.71555 49:0.047938 50:0.41879 51:0.82285 52:0.24479 53:0.52954 54:0.3799 55:0.45018 56:0.71156 57:0.56155 58:0.121 59:0.46862 60:0.67535 
10 1:0.33729 2:0.095846 3:0.035717 4:0.016451 5:0.027825 6:0.025835 7:0.026434 8:0.16533 9:0.032477 10:0.78871 11:0.83729 12:0.047498 13:0.28431 14:0.60016 15:0.10472 16:0.24344 17:0.1838 18:0.026794 19:0.8881 20:0.86285 21:0.33729 22:0.095846 23:0.035717 24:0.016451 25:0.027825 26:0.025835 27:0.026434 28:0.16533 29:0.032477 30:0.78871 31:0.83729 32:0.047498 33:0.28431 34:0.60016 35:0.10472 36:0.24344 37:0.1838 38:0.026794 39:0.8881 40:0.86285 41:0.33729 42:0.095846 43:0.035717 44:0.016451 45:0.027825 46:0.025835 47:0.026434 48:0.16533 49:0.032477 50:0.78871 51:0.83729 52:0.047498 53:0.28431 54:0.60016 55:0.10472 56:0.24344 57:0.1838 58:0.026794 59:0.8881 60:0.86285 
10 1:0.71043 2:0.2095 3:0.19404 4:0 5:0.55171 6:0.013086 7:0.026434 8:0.42945 9:0.11838 10:0.38289 11:0.95509 12:0 13:0.44275 14:0.5379 15:0.13492 16:0.30022 17:0.19307 18:0.026794 19:0.46862 20:0.51586 21:0.71043 22:0.2095 23:0.19404 24:0 25:0.55171 26:0.013086 27:0.026434 28:0.42945 29:0.11838 30:0.38289 31:0.95509 32:0 33:0.44275 34:0.5379 35:0.13492 36:0.30022 37:0.19307 38:0.026794 39:0.46862 40:0.51586 41:0.71043 42:0.2095 43:0.19404 44:0 45:0.55171 46:0.013086 47:0.026434 48:0.42945 49:0.11838 50:0.38289 51:0.95509 52:0 53:0.44275 54:0.5379 55:0.13492 56:0.30022 57:0.19307 58:0.026794 59:0.46862 60:0.51586 
10 1:0.26762 2:0.095846 3:0.035717 4:0.016451 5:0.054143 6:0.025835 7:0.051507 8:0.05609 9:0.016507 10:0.63253 11:0.92479 12:0.024327 13:0.28431 14:0.78473 15:0.019122 16:0.11403 17:0.26028 18:0.026794 19:0.71308 20:0.88847 21:0.26762 22:0.095846 23:0.035717 24:0.016451 25:0.054143 26:0.025835 27:0.051507 28:0.05609 29:0.016507 30:0.63253 31:0.92479 32:0.024327 33:0.28431 34:0.78473 35:0.019122 36:0.11403 37:0.26028 38:0.026794 39:0.71308 40:0.88847 41:0.26762 42:0.095846 43:0.035717 44:0.016451 45:0.054143 46:0.025835 47:0.051507 48:0.05609 49:0.016507 50:0.63253 51:0.92479 52:0.024327 53:0.28431 54:0.78473 55:0.019122 56:0.11403 57:0.26028 58:0.026794 59:0.71308 60:0.88847 
10 1:0.60425 2:0.095846 3:0.23945 4:0 5:0.5399 6:0.013086 7:0.026434 8:0.66452 9:0.016507 10:0.51238 11:0.70309 12:0.047498 13:0.13382 14:0.48708 15:0.72612 16:0.33038 17:0.37702 18:0.064396 19:0.64837 20:0.88142 21:0.60425 22:0.095846 23:0.23945 24:0 25:0.5399 26:0.013086 27:0.026434 28:0.66452 29:0.016507 30:0.51238 31:0.70309 32:0.047498 33:0.13382 34:0.48708 35:0.72612 36:0.33038 37:0.37702 38:0.064396 39:0.64837 40:0.88142 41:0.60425 42:0.095846 43:0.23945 44:0 45:0.5399 46:0.013086 47:0.026434 48:0.66452 49:0.016507 50:0.51238 51:0.70309 52:0.047498 53:0.13382 54:0.48708 55:0.72612 56:0.33038 57:0.37702 58:0.064396 59:0.64837 60:0.88142 
10 1:0.54826 2:0 3:0.018183 4:0 5:0.079073 6:0.013086 7:0 8:0.34845 9:0.16764 10:0.42875 11:0.92128 12:0 13:0.38194 14:0.81519 15:0.019122 16:0.5897 17:0.28985 18:0.013579 19:0.84876 20:0.82967 21:0.54826 22:0 23:0.018183 24:0 25:0.079073 26:0.013086 27:0 28:0.34845 29:0.16764 30:0.42875 31:0.92128 32:0 33:0.38194 34:0.81519 35:0.019122 36:0.5897 37:0.28985 38:0.013579 39:0.84876 40:0.82967 41:0.54826 42:0 43:0.018183 44:0 45:0.079073 46:0.013086 47:0 48:0.34845 49:0.16764 50:0.42875 51:0.92128 52:0 53:0.38194 54:0.81519 55:0.019122 56:0.5897 57:0.28985 58:0.013579 59:0.84876 60:0.82967 
10 1:0.41785 2:0.050335 3:0.018183 4:0 5:0.18631 6:0.013086 7:0.026434 8:0.22906 9:0 10:0.51709 11:0.92555 12:0.024327 13:0.4214 14:0.77115 15:0.037526 16:0.56276 17:0.6466 18:0.026794 19:0.51034 20:0.82667 21:0.41785 22:0.050335 23:0.018183 24:0 25:0.18631 26:0.013086 27:0.026434 28:0.22906 29:0 30:0.51709 31:0.92555 32:0.024327 33:0.4214 34:0.77115 35:0.037526 36:0.56276 37:0.6466 38:0.026794 39:0.51034 40:0.82667 41:0.41785 42:0.050335 43:0.018183 44:0 45:0.18631 46:0.013086 47:0.026434 48:0.22906 49:0 50:0.51709 51:0.92555 52:0.024327 53:0.4214 54:0.77115 55:0.037526 56:0.56276 57:0.6466 58:0.026794 59:0.51034 60:0.82667 
10 1:0.50762 2:0 3:0.018183 4:0 5:0.079073 6:0.013086 7:0 8:0.38044 9:0 10:0.57645 11:0.89338 12:0 13:0.61043 14:0.87523 15:0.17658 16:0.20472 17:0.28985 18:0.013579 19:0.70632 20:0.82035 21:0.50762 22:0 23:0.018183 24:0 25:0.079073 26:0.013086 27:0 28:0.38044 29:0 30:0.57645 31:0.89338 32:0 33:0.61043 34:0.87523 35:0.17658 36:0.20472 37:0.28985 38:0.013579 39:0.70632 40:0.82035 41:0.50762 42:0 43:0.018183 44:0 45:0.079073 46:0.013086 47:0 48:0.38044 49:0 50:0.57645 51:0.89338 52:0 53:0.61043 54:0.87523 55:0.17658 56:0.20472 57:0.28985 58:0.013579 59:0.70632 60:0.82035 
10 1:0.77304 2:0 3:0.018183 4:0 5:0.16691 6:0.013086 7:0 8:0.37274 9:0 10:0.34227 11:0.90693 12:0 13:0.47503 14:0.76789 15:0.019122 16:0.67765 17:0.24455 18:0.53025 19:0.52883 20:0.62959 21:0.77304 22:0 23:0.018183 24:0 25:0.16691 26:0.013086 27:0 28:0.37274 29:0 30:0.34227 31:0.90693 32:0 33:0.47503 34:0.76789 35:0.019122 36:0.67765 37:0.24455 38:0.53025 39:0.52883 40:0.62959 41:0.77304 42:0 43:0.018183 44:0 45:0.16691 46:0.013086 47:0 48:0.37274 49:0 50:0.34227 51:0.90693 52:0 53:0.47503 54:0.76789 55:0.019122 56:0.67765 57:0.24455 58:0.53025 59:0.52883 60:0.62959 
0.1203319693297528 1:0.5612 2:0 3:0 4:0.33412 5:0.30036 6:0.062177 7:0.4489 8:0.25191 9:0.25132 10:0.43839 11:0.93502 12:0.11085 13:0.67935 14:0.83483 15:0.10472 16:0.096867 17:0.07787 18:0.026794 19:0.63817 20:0.68061 21:0.5612 22:0 23:0 24:0.33412 25:0.30036 26:0.062177 27:0.4489 28:0.25191 29:0.25132 30:0.43839 31:0.93502 32:0.11085 33:0.67935 34:0.83483 35:0.10472 36:0.096867 37:0.07787 38:0.026794 39:0.63817 40:0.68061 41:0.5612 42:0 43:0 44:0.33412 45:0.30036 46:0.062177 47:0.4489 48:0.25191 49:0.25132 50:0.43839 51:0.93502 52:0.11085 53:0.67935 54:0.83483 55:0.10472 56:0.096867 57:0.07787 58:0.026794 59:0.63817 60:0.68061 
9.398772155585304 1:0.38515 2:0.050335 3:0.018183 4:0 5:0.16691 6:0.013086 7:0 8:0.43583 9:0 10:0.53936 11:0.9502 12:0.024327 13:0.62023 14:0.7102 15:0.037526 16:0.060463 17:0.21966 18:0.3551 19:0.86213 20:0.63304 21:0.38515 22:0.050335 23:0.018183 24:0 25:0.16691 26:0.013086 27:0 28:0.43583 29:0 30:0.53936 31:0.9502 32:0.024327 33:0.62023 34:0.7102 35:0.037526 36:0.060463 37:0.21966 38:0.3551 39:0.86213 40:0.63304 41:0.38515 42:0.050335 43:0.018183 44:0 45:0.16691 46:0.013086 47:0 48:0.43583 49:0 50:0.53936 51:0.9502 52:0.024327 53:0.62023 54:0.7102 55:0.037526 56:0.060463 57:0.21966 58:0.3551 59:0.86213 60:0.63304 
7.572474517777268 1:0.51077 2:0.050335 3:0.084751 4:0 5:0.079073 6:0.013086 7:0.026434 8:0.24066 9:0.60694 10:0.51709 11:0.94669 12:0.024327 13:0.59656 14:0.71771 15:0.019122 16:0.23096 17:0.065745 18:0.24833 19:0.35946 20:0.71928 21:0.51077 22:0.050335 23:0.084751 24:0 25:0.079073 26:0.013086 27:0.026434 28:0.24066 29:0.60694 30:0.51709 31:0.94669 32:0.024327 33:0.59656 34:0.71771 35:0.019122 36:0.23096 37:0.065745 38:0.24833 39:0.35946 40:0.71928 41:0.51077 42:0.050335 43:0.084751 44:0 45:0.079073 46:0.013086 47:0.026434 48:0.24066 49:0.60694 50:0.51709 51:0.94669 52:0.024327 53:0.59656 54:0.71771 55:0.019122 56:0.23096 57:0.065745 58:0.24833 59:0.35946 60:0.71928 
10 1:0.54826 2:0.74458 3:0.57145 4:0.48806 5:0.027825 6:0.34657 7:0.62353 8:0.5259 9:0.40763 10:0.1871 11:0.82566 12:0.63574 13:0.24871 14:0.55673 15:0.47278 16:0.63755 17:0.49627 18:0.076293 19:0.74788 20:0.44807 21:0.54826 22:0.74458 23:0.57145 24:0.48806 25:0.027825 26:0.34657 27:0.62353 28:0.5259 29:0.40763 30:0.1871 31:0.82566 32:0.63574 33:0.24871 34:0.55673 35:0.47278 36:0.63755 37:0.49627 38:0.076293 39:0.74788 40:0.44807 41:0.54826 42:0.74458 43:0.57145 44:0.48806 45:0.027825 46:0.34657 47:0.62353 48:0.5259 49:0.40763 50:0.1871 51:0.82566 52:0.63574 53:0.24871 54:0.55673 55:0.47278 56:0.63755 57:0.49627 58:0.076293 59:0.74788 60:0.44807 
10 1:0.36998 2:0.59744 3:0.73914 4:0.42394 5:0.35225 6:0.27774 7:0.52679 8:0.73635 9:0.36332 10:0.18044 11:0.81225 12:0.29769 13:0.35556 14:0.35542 15:0.31874 16:0.72994 17:0.47776 18:0.013579 19:0.78668 20:0.40652 21:0.36998 22:0.59744 23:0.73914 24:0.42394 25:0.35225 26:0.27774 27:0.52679 28:0.73635 29:0.36332 30:0.18044 31:0.81225 32:0.29769 33:0.35556 34:0.35542 35:0.31874 36:0.72994 37:0.47776 38:0.013579 39:0.78668 40:0.40652 41:0.36998 42:0.59744 43:0.73914 44:0.42394 45:0.35225 46:0.27774 47:0.52679 48:0.73635 49:0.36332 50:0.18044 51:0.81225 52:0.29769 53:0.35556 54:0.35542 55:0.31874 56:0.72994 57:0.47776 58:0.013579 59:0.78668 60:0.40652 
10 1:0.55091 2:0.64975 3:0.20589 4:0.091202 5:0.054143 6:0.36846 7:0.30286 8:0.40244 9:0.16764 10:0.5329 11:0.93616 12:0.30977 13:0.26097 14:0.69674 15:0.30015 16:0.57473 17:0.22813 18:0.039659 19:0.56193 20:0.64301 21:0.55091 22:0.64975 23:0.20589 24:0.091202 25:0.054143 26:0.36846 27:0.30286 28:0.40244 29:0.16764 30:0.5329 31:0.93616 32:0.30977 33:0.26097 34:0.69674 35:0.30015 36:0.57473 37:0.22813 38:0.039659 39:0.56193 40:0.64301 41:0.55091 42:0.64975 43:0.20589 44:0.091202 45:0.054143 46:0.36846 47:0.30286 48:0.40244 49:0.16764 50:0.5329 51:0.93616 52:0.30977 53:0.26097 54:0.69674 55:0.30015 56:0.57473 57:0.22813 58:0.039659 59:0.56193 60:0.64301 
10 1:0.50444 2:0.44291 3:0.449 4:0.69924 5:0.027825 6:0.47415 7:0.423 8:0.59116 9:0.23202 10:0.12289 11:0.78249 12:0.67154 13:0.11693 14:0.35542 15:0.63175 16:0.69654 17:0.48533 18:0.013579 19:0.61589 20:0.57805 21:0.50444 22:0.44291 23:0.449 24:0.69924 25:0.027825 26:0.47415 27:0.423 28:0.59116 29:0.23202 30:0.12289 31:0.78249 32:0.67154 33:0.11693 34:0.35542 35:0.63175 36:0.69654 37:0.48533 38:0.013579 39:0.61589 40:0.57805 41:0.50444 42:0.44291 43:0.449 44:0.69924 45:0.027825 46:0.47415 47:0.423 48:0.59116 49:0.23202 50:0.12289 51:0.78249 52:0.67154 53:0.11693 54:0.35542 55:0.63175 56:0.69654 57:0.48533 58:0.013579 59:0.61589 60:0.57805 
10 1:0.5317 2:0.47397 3:0.49058 4:0.52469 5:0.20483 6:0.2337 7:0.59001 8:0.57029 9:0.10513 10:0.24256 11:0.46387 12:0.34366 13:0.1808 14:0.57408 15:0.86295 16:0.65878 17:0.3659 18:0.14177 19:0.19388 20:0.36848 21:0.5317 22:0.47397 23:0.49058 24:0.52469 25:0.20483 26:0.2337 27:0.59001 28:0.57029 29:0.10513 30:0.24256 31:0.46387 32:0.34366 33:0.1808 34:0.57408 35:0.86295 36:0.65878 37:0.3659 38:0.14177 39:0.19388 40:0.36848 41:0.5317 42:0.47397 43:0.49058 44:0.52469 45:0.20483 46:0.2337 47:0.59001 48:0.57029 49:0.10513 50:0.24256 51:0.46387 52:0.34366 53:0.1808 54:0.57408 55:0.86295 56:0.65878 57:0.3659 58:0.14177 59:0.19388 60:0.36848 
10 1:0.62553 2:0.45889 3:0.62502 4:0.69618 5:0.027825 6:0.45515 7:0.7752 8:0.59445 9:0.25132 10:0.029147 11:0.70309 12:0.24479 13:0.15006 14:0.5027 15:0.39148 16:0.62289 17:0.46997 18:0.013579 19:0.54598 20:0.52746 21:0.62553 22:0.45889 23:0.62502 24:0.69618 25:0.027825 26:0.45515 27:0.7752 28:0.59445 29:0.25132 30:0.029147 31:0.70309 32:0.24479 33:0.15006 34:0.5027 35:0.39148 36:0.62289 37:0.46997 38:0.013579 39:0.54598 40:0.52746 41:0.62553 42:0.45889 43:0.62502 44:0.69618 45:0.027825 46:0.45515 47:0.7752 48:0.59445 49:0.25132 50:0.029147 51:0.70309 52:0.24479 53:0.15006 54:0.5027 55:0.39148 56:0.62289 57:0.46997 58:0.013579 59:0.54598 60:0.52746 
10 1:0.68547 2:0.34642 3:0.2174 4:0.016451 5:0.22252 6:0.013086 7:0.21354 8:0.53889 9:0.047938 10:0.49514 11:0.91487 12:0.024327 13:0.49828 14:0.70227 15:0.037526 16:0.45552 17:0.34846 18:0.40768 19:0.69181 20:0.73794 21:0.68547 22:0.34642 23:0.2174 24:0.016451 25:0.22252 26:0.013086 27:0.21354 28:0.53889 29:0.047938 30:0.49514 31:0.91487 32:0.024327 33:0.49828 34:0.70227 35:0.037526 36:0.45552 37:0.34846 38:0.40768 39:0.69181 40:0.73794 41:0.68547 42:0.34642 43:0.2174 44:0.016451 45:0.22252 46:0.013086 47:0.21354 48:0.53889 49:0.047938 50:0.49514 51:0.91487 52:0.024327 53:0.49828 54:0.70227 55:0.037526 56:0.45552 57:0.34846 58:0.40768 59:0.69181 60:0.73794 
10 1:0.52882 2:0.40795 3:0.23945 4:0.13084 5:0.027825 6:0.013086 7:0 8:0.41626 9:0.016507 10:0.65415 11:0.93444 12:0 13:0.49266 14:0.55673 15:0.019122 16:0.33038 17:0.49627 18:0 19:0.24282 20:0.79407 21:0.52882 22:0.40795 23:0.23945 24:0.13084 25:0.027825 26:0.013086 27:0 28:0.41626 29:0.016507 30:0.65415 31:0.93444 32:0 33:0.49266 34:0.55673 35:0.019122 36:0.33038 37:0.49627 38:0 39:0.24282 40:0.79407 41:0.52882 42:0.40795 43:0.23945 44:0.13084 45:0.027825 46:0.013086 47:0 48:0.41626 49:0.016507 50:0.65415 51:0.93444 52:0 53:0.49266 54:0.55673 55:0.019122 56:0.33038 57:0.49627 58:0 59:0.24282 60:0.79407 
10 1:0.66337 2:0.13719 3:0.32502 4:0.04778 5:0.23945 6:0.33505 7:0.097969 8:0.825 9:0.22199 10:0.15976 11:0.80386 12:0.069594 13:0.34627 14:0.19683 15:0.25975 16:0.83563 17:0.37151 18:0.3058 19:0.28615 20:0.44807 21:0.66337 22:0.13719 23:0.32502 24:0.04778 25:0.23945 26:0.33505 27:0.097969 28:0.825 29:0.22199 30:0.15976 31:0.80386 32:0.069594 33:0.34627 34:0.19683 35:0.25975 36:0.83563 37:0.37151 38:0.3058 39:0.28615 40:0.44807 41:0.66337 42:0.13719 43:0.32502 44:0.04778 45:0.23945 46:0.33505 47:0.097969 48:0.825 49:0.22199 50:0.15976 51:0.80386 52:0.069594 53:0.34627 54:0.19683 55:0.25975 56:0.83563 57:0.37151 58:0.3058 59:0.28615 60:0.44807 
10 1:0.45895 2:0.27062 3:0.22858 4:0.10481 5:0.027825 6:0.013086 7:0 8:0.66673 9:0.016507 10:0.46543 11:0.66195 12:0.024327 13:0.19534 14:0.605 15:0.019122 16:0.041138 17:0.027378 18:0.87824 19:0.60368 20:0.61133 21:0.45895 22:0.27062 23:0.22858 24:0.10481 25:0.027825 26:0.013086 27:0 28:0.66673 29:0.016507 30:0.46543 31:0.66195 32:0.024327 33:0.19534 34:0.605 35:0.019122 36:0.041138 37:0.027378 38:0.87824 39:0.60368 40:0.61133 41:0.45895 42:0.27062 43:0.22858 44:0.10481 45:0.027825 46:0.013086 47:0 48:0.66673 49:0.016507 50:0.46543 51:0.66195 52:0.024327 53:0.19534 54:0.605 55:0.019122 56:0.041138 57:0.027378 58:0.87824 59:0.60368 60:0.61133 
10 1:0.5317 2:0.050335 3:0.018183 4:0 5:0.23945 6:0.013086 7:0 8:0.33994 9:0 10:0.58177 11:0.94496 12:0.024327 13:0.67707 14:0.65869 15:0.037526 16:0.43575 17:0.2525 18:0.039659 19:0.19388 20:0.76455 21:0.5317 22:0.050335 23:0.018183 24:0 25:0.23945 26:0.013086 27:0 28:0.33994 29:0 30:0.58177 31:0.94496 32:0.024327 33:0.67707 34:0.65869 35:0.037526 36:0.43575 37:0.2525 38:0.039659 39:0.19388 40:0.76455 41:0.5317 42:0.050335 43:0.018183 44:0 45:0.23945 46:0.013086 47:0 48:0.33994 49:0 50:0.58177 51:0.94496 52:0.024327 53:0.67707 54:0.65869 55:0.037526 56:0.43575 57:0.2525 58:0.039659 59:0.19388 60:0.76455 
10 1:0.59376 2:0 3:0.61704 4:0 5:0.10272 6:0.21781 7:0.026434 8:0.51682 9:0.11838 10:0.41879 11:0.88736 12:0 13:0.20938 14:0.7102 15:0.61517 16:0.42175 17:0.44513 18:0.2991 19:0.35946 20:0.80811 21:0.59376 22:0 23:0.61704 24:0 25:0.10272 26:0.21781 27:0.026434 28:0.51682 29:0.11838 30:0.41879 31:0.88736 32:0 33:0.20938 34:0.7102 35:0.61517 36:0.42175 37:0.44513 38:0.2991 39:0.35946 40:0.80811 41:0.59376 42:0 43:0.61704 44:0 45:0.10272 46:0.21781 47:0.026434 48:0.51682 49:0.11838 50:0.41879 51:0.88736 52:0 53:0.20938 54:0.7102 55:0.61517 56:0.42175 57:0.44513 58:0.2991 59:0.35946 60:0.80811 
10 1:0.61422 2:0 3:0.06897 4:0 5:0.16691 6:0.050368 7:0 8:0.59768 9:0 10:0.41539 11:0.89286 12:0 13:0.58166 14:0.66907 15:0.16314 16:0.47982 17:0.66961 18:0.121 19:0.67579 20:0.81177 21:0.61422 22:0 23:0.06897 24:0 25:0.16691 26:0.050368 27:0 28:0.59768 29:0 30:0.41539 31:0.89286 32:0 33:0.58166 34:0.66907 35:0.16314 36:0.47982 37:0.66961 38:0.121 39:0.67579 40:0.81177 41:0.61422 42:0 43:0.06897 44:0 45:0.16691 46:0.050368 47:0 48:0.59768 49:0 50:0.41539 51:0.89286 52:0 53:0.58166 54:0.66907 55:0.16314 56:0.47982 57:0.66961 58:0.121 59:0.67579 60:0.81177 
10 1:0.50762 2:0 3:0.018183 4:0 5:0.3273 6:0.025835 7:0 8:0.42945 9:0 10:0.54564 11:0.94881 12:0 13:0.72084 14:0.64763 15:0.019122 16:0.28956 17:0.28268 18:0.026794 19:0.32479 20:0.72322 21:0.50762 22:0 23:0.018183 24:0 25:0.3273 26:0.025835 27:0 28:0.42945 29:0 30:0.54564 31:0.94881 32:0 33:0.72084 34:0.64763 35:0.019122 36:0.28956 37:0.28268 38:0.026794 39:0.32479 40:0.72322 41:0.50762 42:0 43:0.018183 44:0 45:0.3273 46:0.025835 47:0 48:0.42945 49:0 50:0.54564 51:0.94881 52:0 53:0.72084 54:0.64763 55:0.019122 56:0.28956 57:0.28268 58:0.026794 59:0.32479 60:0.72322 
10 1:0.67888 2:0.050335 3:0.16924 4:0.016451 5:0.12519 6:0.025835 7:0.097969 8:0.78096 9:0.016507 10:0.074125 11:0.60044 12:0 13:0.39025 14:0.45268 15:0.60931 16:0.87911 17:0.57467 18:0.013579 19:0.13818 20:0.32524 21:0.67888 22:0.050335 23:0.16924 24:0.016451 25:0.12519 26:0.025835 27:0.097969 28:0.78096 29:0.016507 30:0.074125 31:0.60044 32:0 33:0.39025 34:0.45268 35:0.60931 36:0.87911 37:0.57467 38:0.013579 39:0.13818 40:0.32524 41:0.67888 42:0.050335 43:0.16924 44:0.016451 45:0.12519 46:0.025835 47:0.097969 48:0.78096 49:0.016507 50:0.074125 51:0.60044 52:0 53:0.39025 54:0.45268 55:0.60931 56:0.87911 57:0.57467 58:0.013579 59:0.13818 60:0.32524 
10 1:0.72098 2:0 3:0.018183 4:0.077175 5:0.18631 6:0.29791 7:0.15971 8:0.60086 9:0.65275 10:0.50757 11:0.86524 12:0.2722 13:0.11693 14:0.51741 15:0.037526 16:0.42883 17:0.51352 18:0.1805 19:0.24282 20:0.76595 21:0.72098 22:0 23:0.018183 24:0.077175 25:0.18631 26:0.29791 27:0.15971 28:0.60086 29:0.65275 30:0.50757 31:0.86524 32:0.2722 33:0.11693 34:0.51741 35:0.037526 36:0.42883 37:0.51352 38:0.1805 39:0.24282 40:0.76595 41:0.72098 42:0 43:0.018183 44:0.077175 45:0.18631 46:0.29791 47:0.15971 48:0.60086 49:0.65275 50:0.50757 51:0.86524 52:0.2722 53:0.11693 54:0.51741 55:0.037526 56:0.42883 57:0.51352 58:0.1805 59:0.24282 60:0.76595 
10 1:0.39486 2:0 3:0.018183 4:0 5:0.30036 6:0.013086 7:0 8:0.12177 9:0 10:0.54356 11:0.95769 12:0 13:0.4214 14:0.63173 15:0.24892 16:0.26722 17:0.27537 18:0.1805 19:0.44497 20:0.77138 21:0.39486 22:0 23:0.018183 24:0 25:0.30036 26:0.013086 27:0 28:0.12177 29:0 30:0.54356 31:0.95769 32:0 33:0.4214 34:0.63173 35:0.24892 36:0.26722 37:0.27537 38:0.1805 39:0.44497 40:0.77138 41:0.39486 42:0 43:0.018183 44:0 45:0.30036 46:0.013086 47:0 48:0.12177 49:0 50:0.54356 51:0.95769 52:0 53:0.4214 54:0.63173 55:0.24892 56:0.26722 57:0.27537 58:0.1805 59:0.44497 60:0.77138 
10 1:0.38018 2:0 3:0.018183 4:0 5:0.30036 6:0.013086 7:0 8:0.28375 9:0 10:0.64556 11:0.90324 12:0 13:0.50377 14:0.66568 15:0.019122 16:0.17663 17:0.21966 18:0.13151 19:0.41912 20:0.90277 21:0.38018 22:0 23:0.018183 24:0 25:0.30036 26:0.013086 27:0 28:0.28375 29:0 30:0.64556 31:0.90324 32:0 33:0.50377 34:0.66568 35:0.019122 36:0.17663 37:0.21966 38:0.13151 39:0.41912 40:0.90277 41:0.38018 42:0 43:0.018183 44:0 45:0.30036 46:0.013086 47:0 48:0.28375 49:0 50:0.64556 51:0.90324 52:0 53:0.50377 54:0.66568 55:0.019122 56:0.17663 57:0.21966 58:0.13151 59:0.41912 60:0.90277 
10 1:0.43082 2:0 3:0.12904 4:0 5:0.23945 6:0 7:0 8:0.47128 9:0 10:0.65295 11:0.95031 12:0 13:0.49828 14:0.66907 15:0.019122 16:0.27856 17:0.22813 18:0.026794 19:0.52883 20:0.72127 21:0.43082 22:0 23:0.12904 24:0 25:0.23945 26:0 27:0 28:0.47128 29:0 30:0.65295 31:0.95031 32:0 33:0.49828 34:0.66907 35:0.019122 36:0.27856 37:0.22813 38:0.026794 39:0.52883 40:0.72127 41:0.43082 42:0 43:0.12904 44:0 45:0.23945 46:0 47:0 48:0.47128 49:0 50:0.65295 51:0.95031 52:0 53:0.49828 54:0.66907 55:0.019122 56:0.27856 57:0.22813 58:0.026794 59:0.52883 60:0.72127 
10 1:0.56616 2:0.050335 3:0.20589 4:0.13084 5:0.079073 6:0.095906 7:0 8:0.22906 9:0 10:0.5307 11:0.93365 12:0.024327 13:0.4214 14:0.79679 15:0.037526 16:0.19092 17:0.35438 18:0.08789 19:0.91245 20:0.65848 21:0.56616 22:0.050335 23:0.20589 24:0.13084 25:0.079073 26:0.095906 27:0 28:0.22906 29:0 30:0.5307 31:0.93365 32:0.024327 33:0.4214 34:0.79679 35:0.037526 36:0.19092 37:0.35438 38:0.08789 39:0.91245 40:0.65848 41:0.56616 42:0.050335 43:0.20589 44:0.13084 45:0.079073 46:0.095906 47:0 48:0.22906 49:0 50:0.5307 51:0.93365 52:0.024327 53:0.4214 54:0.79679 55:0.037526 56:0.19092 57:0.35438 58:0.08789 59:0.91245 60:0.65848 
10 1:0.35945 2:0.2095 3:0.10001 4:0 5:0.23945 6:0.062177 7:0 8:0.34845 9:0 10:0.64175 11:0.91681 12:0 13:0.50915 14:0.77586 15:0.68393 16:0.36676 17:0.43633 18:0.013579 19:0.41912 20:0.7496 21:0.35945 22:0.2095 23:0.10001 24:0 25:0.23945 26:0.062177 27:0 28:0.34845 29:0 30:0.64175 31:0.91681 32:0 33:0.50915 34:0.77586 35:0.68393 36:0.36676 37:0.43633 38:0.013579 39:0.41912 40:0.7496 41:0.35945 42:0.2095 43:0.10001 44:0 45:0.23945 46:0.062177 47:0 48:0.34845 49:0 50:0.64175 51:0.91681 52:0 53:0.50915 54:0.77586 55:0.68393 56:0.36676 57:0.43633 58:0.013579 59:0.41912 60:0.7496 
10 1:0.76683 2:0 3:0.018183 4:0.077175 5:0.079073 6:0.013086 7:0.026434 8:0.49254 9:0 10:0.52172 11:0.84421 12:0 13:0.34627 14:0.7076 15:0.037526 16:0.57081 17:0.60756 18:0.013579 19:0.85057 20:0.73619 21:0.76683 22:0 23:0.018183 24:0.077175 25:0.079073 26:0.013086 27:0.026434 28:0.49254 29:0 30:0.52172 31:0.84421 32:0 33:0.34627 34:0.7076 35:0.037526 36:0.57081 37:0.60756 38:0.013579 39:0.85057 40:0.73619 41:0.76683 42:0 43:0.018183 44:0.077175 45:0.079073 46:0.013086 47:0.026434 48:0.49254 49:0 50:0.52172 51:0.84421 52:0 53:0.34627 54:0.7076 55:0.037526 56:0.57081 57:0.60756 58:0.013579 59:0.85057 60:0.73619 
10 1:0.45895 2:0 3:0.2174 4:0 5:0.079073 6:0.062177 7:0 8:0.5259 9:0 10:0.61107 11:0.9451 12:0 13:0.42869 14:0.47044 15:0.037526 16:0.27856 17:0.35438 18:0.13151 19:0.35946 20:0.82035 21:0.45895 22:0 23:0.2174 24:0 25:0.079073 26:0.062177 27:0 28:0.5259 29:0 30:0.61107 31:0.9451 32:0 33:0.42869 34:0.47044 35:0.037526 36:0.27856 37:0.35438 38:0.13151 39:0.35946 40:0.82035 41:0.45895 42:0 43:0.2174 44:0 45:0.079073 46:0.062177 47:0 48:0.5259 49:0 50:0.61107 51:0.9451 52:0 53:0.42869 54:0.47044 55:0.037526 56:0.27856 57:0.35438 58:0.13151 59:0.35946 60:0.82035 
10 1:0.44724 2:0.095846 3:0.035717 4:0.016451 5:0.054143 6:0.025835 7:0.026434 8:0.24066 9:0.13123 10:0.3335 11:0.89018 12:0.024327 13:0.62954 14:0.87665 15:0.43191 16:0.23096 17:0.59642 18:0.3058 19:0.88606 20:0.66713 21:0.44724 22:0.095846 23:0.035717 24:0.016451 25:0.054143 26:0.025835 27:0.026434 28:0.24066 29:0.13123 30:0.3335 31:0.89018 32:0.024327 33:0.62954 34:0.87665 35:0.43191 36:0.23096 37:0.59642 38:0.3058 39:0.88606 40:0.66713 41:0.44724 42:0.095846 43:0.035717 44:0.016451 45:0.054143 46:0.025835 47:0.026434 48:0.24066 49:0.13123 50:0.3335 51:0.89018 52:0.024327 53:0.62954 54:0.87665 55:0.43191 56:0.23096 57:0.59642 58:0.3058 59:0.88606 60:0.66713 
10 1:0.44323 2:0.095846 3:0.06897 4:0.032369 5:0.14656 6:0.1659 7:0.14009 8:0.47128 9:0.016507 10:0.45964 11:0.76875 12:0.047498 13:0.39835 14:0.88729 15:0.019122 16:0.35804 17:0.21099 18:0.75675 19:0.90059 20:0.40652 21:0.44323 22:0.095846 23:0.06897 24:0.032369 25:0.14656 26:0.1659 27:0.14009 28:0.47128 29:0.016507 30:0.45964 31:0.76875 32:0.047498 33:0.39835 34:0.88729 35:0.019122 36:0.35804 37:0.21099 38:0.75675 39:0.90059 40:0.40652 41:0.44323 42:0.095846 43:0.06897 44:0.032369 45:0.14656 46:0.1659 47:0.14009 48:0.47128 49:0.016507 50:0.45964 51:0.76875 52:0.047498 53:0.39835 54:0.88729 55:0.019122 56:0.35804 57:0.21099 58:0.75675 59:0.90059 60:0.40652 
10 1:0.61615 2:0 3:0.018183 4:0 5:0.27118 6:0.013086 7:0 8:0.71715 9:0 10:0.39412 11:0.94869 12:0 13:0.37339 14:0.605 15:0.037526 16:0.69049 17:0.2679 18:0.013579 19:0.19388 20:0.55917 21:0.61615 22:0 23:0.018183 24:0 25:0.27118 26:0.013086 27:0 28:0.71715 29:0 30:0.39412 31:0.94869 32:0 33:0.37339 34:0.605 35:0.037526 36:0.69049 37:0.2679 38:0.013579 39:0.19388 40:0.55917 41:0.61615 42:0 43:0.018183 44:0 45:0.27118 46:0.013086 47:0 48:0.71715 49:0 50:0.39412 51:0.94869 52:0 53:0.37339 54:0.605 55:0.037526 56:0.69049 57:0.2679 58:0.013579 59:0.19388 60:0.55917 
10 1:0.33729 2:0 3:0.11476 4:0.091202 5:0.079073 6:0.062177 7:0 8:0.57391 9:0 10:0.45964 11:0.93072 12:0 13:0.3646 14:0.88768 15:0.14926 16:0.52245 17:0.3659 18:0.013579 19:0.51034 20:0.70232 21:0.33729 22:0 23:0.11476 24:0.091202 25:0.079073 26:0.062177 27:0 28:0.57391 29:0 30:0.45964 31:0.93072 32:0 33:0.3646 34:0.88768 35:0.14926 36:0.52245 37:0.3659 38:0.013579 39:0.51034 40:0.70232 41:0.33729 42:0 43:0.11476 44:0.091202 45:0.079073 46:0.062177 47:0 48:0.57391 49:0 50:0.45964 51:0.93072 52:0 53:0.3646 54:0.88768 55:0.14926 56:0.52245 57:0.3659 58:0.013579 59:0.51034 60:0.70232 
10 1:0.45895 2:0.40795 3:0.2174 4:0.04778 5:0.027825 6:0.12729 7:0.17845 8:0.19205 9:0.14372 10:0.48998 11:0.84955 12:0.11085 13:0.46257 14:0.69099 15:0.23775 16:0.53204 17:0.60095 18:0.74207 19:0.74788 20:0.72515 21:0.45895 22:0.40795 23:0.2174 24:0.04778 25:0.027825 26:0.12729 27:0.17845 28:0.19205 29:0.14372 30:0.48998 31:0.84955 32:0.11085 33:0.46257 34:0.69099 35:0.23775 36:0.53204 37:0.60095 38:0.74207 39:0.74788 40:0.72515 41:0.45895 42:0.40795 43:0.2174 44:0.04778 45:0.027825 46:0.12729 47:0.17845 48:0.19205 49:0.14372 50:0.48998 51:0.84955 52:0.11085 53:0.46257 54:0.69099 55:0.23775 56:0.53204 57:0.60095 58:0.74207 59:0.74788 60:0.72515 
10 1:0.68287 2:0.45889 3:0.30771 4:0.22139 5:0.027825 6:0.062177 7:0.48727 8:0.28375 9:0.10513 10:0.48737 11:0.81994 12:0.2722 13:0.51956 14:0.75934 15:0.41904 16:0.58235 17:0.59411 18:0.23245 19:0.839 20:0.58689 21:0.68287 22:0.45889 23:0.30771 24:0.22139 25:0.027825 26:0.062177 27:0.48727 28:0.28375 29:0.10513 30:0.48737 31:0.81994 32:0.2722 33:0.51956 34:0.75934 35:0.41904 36:0.58235 37:0.59411 38:0.23245 39:0.839 40:0.58689 41:0.68287 42:0.45889 43:0.30771 44:0.22139 45:0.027825 46:0.062177 47:0.48727 48:0.28375 49:0.10513 50:0.48737 51:0.81994 52:0.2722 53:0.51956 54:0.75934 55:0.41904 56:0.58235 57:0.59411 58:0.23245 59:0.839 60:0.58689 
10 1:0.39486 2:0.050335 3:0.018183 4:0.016451 5:0.054143 6:0.013086 7:0.026434 8:0.16533 9:0.016507 10:0.65415 11:0.8944 12:0.024327 13:0.51956 14:0.8373 15:0.14926 16:0.36676 17:0.27537 18:0.27821 19:0.88061 20:0.79829 21:0.39486 22:0.050335 23:0.018183 24:0.016451 25:0.054143 26:0.013086 27:0.026434 28:0.16533 29:0.016507 30:0.65415 31:0.8944 32:0.024327 33:0.51956 34:0.8373 35:0.14926 36:0.36676 37:0.27537 38:0.27821 39:0.88061 40:0.79829 41:0.39486 42:0.050335 43:0.018183 44:0.016451 45:0.054143 46:0.013086 47:0.026434 48:0.16533 49:0.016507 50:0.65415 51:0.8944 52:0.024327 53:0.51956 54:0.8373 55:0.14926 56:0.36676 57:0.27537 58:0.27821 59:0.88061 60:0.79829 
10 1:0.57341 2:0.13719 3:0.28949 4:0.091202 5:0.054143 6:0.47415 7:0.051507 8:0.79601 9:0.62897 10:0.24256 11:0.7109 12:0.069594 13:0.27283 14:0.87938 15:0.037526 16:0.5897 17:0.16461 18:0.039659 19:0.7257 20:0.45569 21:0.57341 22:0.13719 23:0.28949 24:0.091202 25:0.054143 26:0.47415 27:0.051507 28:0.79601 29:0.62897 30:0.24256 31:0.7109 32:0.069594 33:0.27283 34:0.87938 35:0.037526 36:0.5897 37:0.16461 38:0.039659 39:0.7257 40:0.45569 41:0.57341 42:0.13719 43:0.28949 44:0.091202 45:0.054143 46:0.47415 47:0.051507 48:0.79601 49:0.62897 50:0.24256 51:0.7109 52:0.069594 53:0.27283 54:0.87938 55:0.037526 56:0.5897 57:0.16461 58:0.039659 59:0.7257 60:0.45569 
10 1:0.54013 2:0.24128 3:0.14287 4:0 5:0.054143 6:0.013086 7:0 8:0.16533 9:0 10:0.62423 11:0.80898 12:0 13:0.43581 14:0.7482 15:0.23775 16:0.6842 17:0.54469 18:0.24833 19:0.69181 20:0.85583 21:0.54013 22:0.24128 23:0.14287 24:0 25:0.054143 26:0.013086 27:0 28:0.16533 29:0 30:0.62423 31:0.80898 32:0 33:0.43581 34:0.7482 35:0.23775 36:0.6842 37:0.54469 38:0.24833 39:0.69181 40:0.85583 41:0.54013 42:0.24128 43:0.14287 44:0 45:0.054143 46:0.013086 47:0 48:0.16533 49:0 50:0.62423 51:0.80898 52:0 53:0.43581 54:0.7482 55:0.23775 56:0.6842 57:0.54469 58:0.24833 59:0.69181 60:0.85583 
10 1:0.67888 2:0.095846 3:0.33335 4:0.16716 5:0.054143 6:0.1659 7:0.19638 8:0.41626 9:0.29557 10:0.33791 11:0.89688 12:0.047498 13:0.52954 14:0.85596 15:0.037526 16:0.58235 17:0.43182 18:0.026794 19:0.69924 20:0.63304 21:0.67888 22:0.095846 23:0.33335 24:0.16716 25:0.054143 26:0.1659 27:0.19638 28:0.41626 29:0.29557 30:0.33791 31:0.89688 32:0.047498 33:0.52954 34:0.85596 35:0.037526 36:0.58235 37:0.43182 38:0.026794 39:0.69924 40:0.63304 41:0.67888 42:0.095846 43:0.33335 44:0.16716 45:0.054143 46:0.1659 47:0.19638 48:0.41626 49:0.29557 50:0.33791 51:0.89688 52:0.047498 53:0.52954 54:0.85596 55:0.037526 56:0.58235 57:0.43182 58:0.026794 59:0.69924 60:0.63304 
10 1:0.6022 2:0.050335 3:0.11476 4:0.016451 5:0.25565 6:0.025835 7:0.026434 8:0.6328 9:0.016507 10:0.60802 11:0.93597 12:0.024327 13:0.60705 14:0.70496 15:0.037526 16:0.30022 17:0.29688 18:0.11023 19:0.61589 20:0.6225 21:0.6022 22:0.050335 23:0.11476 24:0.016451 25:0.25565 26:0.025835 27:0.026434 28:0.6328 29:0.016507 30:0.60802 31:0.93597 32:0.024327 33:0.60705 34:0.70496 35:0.037526 36:0.30022 37:0.29688 38:0.11023 39:0.61589 40:0.6225 41:0.6022 42:0.050335 43:0.11476 44:0.016451 45:0.25565 46:0.025835 47:0.026434 48:0.6328 49:0.016507 50:0.60802 51:0.93597 52:0.024327 53:0.60705 54:0.70496 55:0.037526 56:0.30022 57:0.29688 58:0.11023 59:0.61589 60:0.6225 
10 1:0.47381 2:0.17493 3:0.15626 4:0.016451 5:0.16691 6:0.25637 7:0.75743 8:0.2171 9:0.047938 10:0.73699 11:0.84746 12:0.047498 13:0.46887 14:0.43369 15:0.037526 16:0.36676 17:0.12338 18:0.026794 19:0.46862 20:0.8526 21:0.47381 22:0.17493 23:0.15626 24:0.016451 25:0.16691 26:0.25637 27:0.75743 28:0.2171 29:0.047938 30:0.73699 31:0.84746 32:0.047498 33:0.46887 34:0.43369 35:0.037526 36:0.36676 37:0.12338 38:0.026794 39:0.46862 40:0.8526 41:0.47381 42:0.17493 43:0.15626 44:0.016451 45:0.16691 46:0.25637 47:0.75743 48:0.2171 49:0.047938 50:0.73699 51:0.84746 52:0.047498 53:0.46887 54:0.43369 55:0.037526 56:0.36676 57:0.12338 58:0.026794 59:0.46862 60:0.8526 
10 1:0.33151 2:0 3:0.018183 4:0 5:0.054143 6:0.013086 7:0 8:0.13679 9:0.077422 10:0.72004 11:0.91179 12:0 13:0.41391 14:0.66907 15:0.12008 16:0.23096 17:0.15467 18:0.013579 19:0.19388 20:0.89094 21:0.33151 22:0 23:0.018183 24:0 25:0.054143 26:0.013086 27:0 28:0.13679 29:0.077422 30:0.72004 31:0.91179 32:0 33:0.41391 34:0.66907 35:0.12008 36:0.23096 37:0.15467 38:0.013579 39:0.19388 40:0.89094 41:0.33151 42:0 43:0.018183 44:0 45:0.054143 46:0.013086 47:0 48:0.13679 49:0.077422 50:0.72004 51:0.91179 52:0 53:0.41391 54:0.66907 55:0.12008 56:0.23096 57:0.15467 58:0.013579 59:0.19388 60:0.89094 
10 1:0.31964 2:0.050335 3:0.018183 4:0.10481 5:0 6:0.050368 7:0 8:0.29377 9:0.10513 10:0.0099083 11:0.083474 12:0.024327 13:0 14:0.029722 15:0.94636 16:0.060463 17:0.12338 18:0 19:0 20:0.024741 21:0.31964 22:0.050335 23:0.018183 24:0.10481 25:0 26:0.050368 27:0 28:0.29377 29:0.10513 30:0.0099083 31:0.083474 32:0.024327 33:0 34:0.029722 35:0.94636 36:0.060463 37:0.12338 38:0 39:0 40:0.024741 41:0.31964 42:0.050335 43:0.018183 44:0.10481 45:0 46:0.050368 47:0 48:0.29377 49:0.10513 50:0.0099083 51:0.083474 52:0.024327 53:0 54:0.029722 55:0.94636 56:0.060463 57:0.12338 58:0 59:0 60:0.024741 
10 1:0.45895 2:0.050335 3:0.11476 4:0 5:0.22252 6:0.013086 7:0.026434 8:0.37274 9:0.016507 10:0.66794 11:0.91835 12:0.024327 13:0.74446 14:0.61883 15:0.019122 16:0.27856 17:0.31053 18:0.013579 19:0.35946 20:0.83113 21:0.45895 22:0.050335 23:0.11476 24:0 25:0.22252 26:0.013086 27:0.026434 28:0.37274 29:0.016507 30:0.66794 31:0.91835 32:0.024327 33:0.74446 34:0.61883 35:0.019122 36:0.27856 37:0.31053 38:0.013579 39:0.35946 40:0.83113 41:0.45895 42:0.050335 43:0.11476 44:0 45:0.22252 46:0.013086 47:0.026434 48:0.37274 49:0.016507 50:0.66794 51:0.91835 52:0.024327 53:0.74446 54:0.61883 55:0.019122 56:0.27856 57:0.31053 58:0.013579 59:0.35946 60:0.83113 
10 1:0.64627 2:0.050335 3:0.018183 4:0 5:0.054143 6:0.013086 7:0.026434 8:0.65059 9:0 10:0.432 11:0.89832 12:0.024327 13:0.75416 14:0.81091 15:0.055252 16:0.39156 17:0.34243 18:0.1805 19:0.46862 20:0.74138 21:0.64627 22:0.050335 23:0.018183 24:0 25:0.054143 26:0.013086 27:0.026434 28:0.65059 29:0 30:0.432 31:0.89832 32:0.024327 33:0.75416 34:0.81091 35:0.055252 36:0.39156 37:0.34243 38:0.1805 39:0.46862 40:0.74138 41:0.64627 42:0.050335 43:0.018183 44:0 45:0.054143 46:0.013086 47:0.026434 48:0.65059 49:0 50:0.432 51:0.89832 52:0.024327 53:0.75416 54:0.81091 55:0.055252 56:0.39156 57:0.34243 58:0.1805 59:0.46862 60:0.74138 
10 1:0.46649 2:0.050335 3:0.15626 4:0 5:0.48573 6:0.013086 7:0.14009 8:0.51215 9:0 10:0.47108 11:0.93304 12:0.024327 13:0.55275 14:0.73164 15:0.037526 16:0.6431 17:0.38776 18:0.026794 19:0.76229 20:0.74637 21:0.46649 22:0.050335 23:0.15626 24:0 25:0.48573 26:0.013086 27:0.14009 28:0.51215 29:0 30:0.47108 31:0.93304 32:0.024327 33:0.55275 34:0.73164 35:0.037526 36:0.6431 37:0.38776 38:0.026794 39:0.76229 40:0.74637 41:0.46649 42:0.050335 43:0.15626 44:0 45:0.48573 46:0.013086 47:0.14009 48:0.51215 49:0 50:0.47108 51:0.93304 52:0.024327 53:0.55275 54:0.73164 55:0.037526 56:0.6431 57:0.38776 58:0.026794 59:0.76229 60:0.74637 
10 1:0.31354 2:0.58866 3:0.084751 4:0 5:0.22252 6:0.013086 7:0.026434 8:0.2171 9:0.09149 10:0.38289 11:0.95887 12:0.28517 13:0.66011 14:0.5952 15:0.019122 16:0.38351 17:0.14449 18:0.47979 19:0.51034 20:0.57348 21:0.31354 22:0.58866 23:0.084751 24:0 25:0.22252 26:0.013086 27:0.026434 28:0.2171 29:0.09149 30:0.38289 31:0.95887 32:0.28517 33:0.66011 34:0.5952 35:0.019122 36:0.38351 37:0.14449 38:0.47979 39:0.51034 40:0.57348 41:0.31354 42:0.58866 43:0.084751 44:0 45:0.22252 46:0.013086 47:0.026434 48:0.2171 49:0.09149 50:0.38289 51:0.95887 52:0.28517 53:0.66011 54:0.5952 55:0.019122 56:0.38351 57:0.14449 58:0.47979 59:0.51034 60:0.57348 
10 1:0.26055 2:0.9126 3:0.60586 4:0.1786 5:0.14656 6:0.31699 7:0.44053 8:0.2171 9:0.11838 10:0.37124 11:0.83103 12:0.8272 13:0.39025 14:0.48708 15:0.10472 16:0.47395 17:0.28268 18:0.24047 19:0.70632 20:0.51586 21:0.26055 22:0.9126 23:0.60586 24:0.1786 25:0.14656 26:0.31699 27:0.44053 28:0.2171 29:0.11838 30:0.37124 31:0.83103 32:0.8272 33:0.39025 34:0.48708 35:0.10472 36:0.47395 37:0.28268 38:0.24047 39:0.70632 40:0.51586 41:0.26055 42:0.9126 43:0.60586 44:0.1786 45:0.14656 46:0.31699 47:0.44053 48:0.2171 49:0.11838 50:0.37124 51:0.83103 52:0.8272 53:0.39025 54:0.48708 55:0.10472 56:0.47395 57:0.28268 58:0.24047 59:0.70632 60:0.51586 
10 1:0.41339 2:0.050335 3:0.15626 4:0 5:0.28607 6:0.025835 7:0.026434 8:0.45997 9:0.016507 10:0.5654 11:0.94857 12:0.024327 13:0.6355 14:0.62323 15:0.13492 16:0.28956 17:0.42259 18:0.16158 19:0.60368 20:0.70455 21:0.41339 22:0.050335 23:0.15626 24:0 25:0.28607 26:0.025835 27:0.026434 28:0.45997 29:0.016507 30:0.5654 31:0.94857 32:0.024327 33:0.6355 34:0.62323 35:0.13492 36:0.28956 37:0.42259 38:0.16158 39:0.60368 40:0.70455 41:0.41339 42:0.050335 43:0.15626 44:0 45:0.28607 46:0.025835 47:0.026434 48:0.45997 49:0.016507 50:0.5654 51:0.94857 52:0.024327 53:0.6355 54:0.62323 55:0.13492 56:0.28956 57:0.42259 58:0.16158 59:0.60368 60:0.70455 
10 1:0.61226 2:0 3:0.64708 4:0 5:0.27118 6:0.14703 7:0.026434 8:0.55118 9:0.077422 10:0.30086 11:0.81063 12:0 13:0.52954 14:0.87378 15:0.055252 16:0.58235 17:0.62417 18:0.19858 19:0.51034 20:0.58252 21:0.61226 22:0 23:0.64708 24:0 25:0.27118 26:0.14703 27:0.026434 28:0.55118 29:0.077422 30:0.30086 31:0.81063 32:0 33:0.52954 34:0.87378 35:0.055252 36:0.58235 37:0.62417 38:0.19858 39:0.51034 40:0.58252 41:0.61226 42:0 43:0.64708 44:0 45:0.27118 46:0.14703 47:0.026434 48:0.55118 49:0.077422 50:0.30086 51:0.81063 52:0 53:0.52954 54:0.87378 55:0.055252 56:0.58235 57:0.62417 58:0.19858 59:0.51034 60:0.58252 
10 1:0.58042 2:0 3:0.70493 4:0 5:0.20483 6:0.11708 7:0 8:0.44816 9:0.047938 10:0.5307 11:0.87304 12:0.13013 13:0.50915 14:0.76789 15:0.088816 16:0.32062 17:0.43633 18:0.20732 19:0.75767 20:0.77782 21:0.58042 22:0 23:0.70493 24:0 25:0.20483 26:0.11708 27:0 28:0.44816 29:0.047938 30:0.5307 31:0.87304 32:0.13013 33:0.50915 34:0.76789 35:0.088816 36:0.32062 37:0.43633 38:0.20732 39:0.75767 40:0.77782 41:0.58042 42:0 43:0.70493 44:0 45:0.20483 46:0.11708 47:0 48:0.44816 49:0.047938 50:0.5307 51:0.87304 52:0.13013 53:0.50915 54:0.76789 55:0.088816 56:0.32062 57:0.43633 58:0.20732 59:0.75767 60:0.77782 
10 1:0.41339 2:0 3:0.11476 4:0 5:0.35225 6:0.025835 7:0 8:0.6328 9:0 10:0.57824 11:0.94708 12:0 13:0.56974 14:0.68196 15:0.019122 16:0.16182 17:0.31715 18:0.15179 19:0.13818 20:0.74307 21:0.41339 22:0 23:0.11476 24:0 25:0.35225 26:0.025835 27:0 28:0.6328 29:0 30:0.57824 31:0.94708 32:0 33:0.56974 34:0.68196 35:0.019122 36:0.16182 37:0.31715 38:0.15179 39:0.13818 40:0.74307 41:0.41339 42:0 43:0.11476 44:0 45:0.35225 46:0.025835 47:0 48:0.6328 49:0 50:0.57824 51:0.94708 52:0 53:0.56974 54:0.68196 55:0.019122 56:0.16182 57:0.31715 58:0.15179 59:0.13818 60:0.74307 
10 1:0.4512 2:0.095846 3:0.035717 4:0.091202 5:0.3141 6:0.038258 7:0.31581 8:0.38044 9:0.8153 10:0.25387 11:0.86607 12:0.024327 13:0.62339 14:0.72941 15:0.055252 16:0.36676 17:0.48157 18:0.31237 19:0.87945 20:0.47734 21:0.4512 22:0.095846 23:0.035717 24:0.091202 25:0.3141 26:0.038258 27:0.31581 28:0.38044 29:0.8153 30:0.25387 31:0.86607 32:0.024327 33:0.62339 34:0.72941 35:0.055252 36:0.36676 37:0.48157 38:0.31237 39:0.87945 40:0.47734 41:0.4512 42:0.095846 43:0.035717 44:0.091202 45:0.3141 46:0.038258 47:0.31581 48:0.38044 49:0.8153 50:0.25387 51:0.86607 52:0.024327 53:0.62339 54:0.72941 55:0.055252 56:0.36676 57:0.48157 58:0.31237 59:0.87945 60:0.47734 
10 1:0.43082 2:0.095846 3:0.18183 4:0.077175 5:0.027825 6:0.038258 7:0.14009 8:0.35676 9:0.10513 10:0.38668 11:0.89127 12:0.047498 13:0.44952 14:0.76789 15:0.38417 16:0.38351 17:0.14449 18:0.68908 19:0.94342 20:0.54387 21:0.43082 22:0.095846 23:0.18183 24:0.077175 25:0.027825 26:0.038258 27:0.14009 28:0.35676 29:0.10513 30:0.38668 31:0.89127 32:0.047498 33:0.44952 34:0.76789 35:0.38417 36:0.38351 37:0.14449 38:0.68908 39:0.94342 40:0.54387 41:0.43082 42:0.095846 43:0.18183 44:0.077175 45:0.027825 46:0.038258 47:0.14009 48:0.35676 49:0.10513 50:0.38668 51:0.89127 52:0.047498 53:0.44952 54:0.76789 55:0.38417 56:0.38351 57:0.14449 58:0.68908 59:0.94342 60:0.54387 
10 1:0.49128 2:0.62166 3:0.4316 4:0.13084 5:0.25565 6:0.46291 7:0.31581 8:0.24066 9:0.21169 10:0.60492 11:0.83966 12:0.21523 13:0.39835 14:0.68804 15:0.23775 16:0.38351 17:0.28268 18:0.61079 19:0.77913 20:0.73619 21:0.49128 22:0.62166 23:0.4316 24:0.13084 25:0.25565 26:0.46291 27:0.31581 28:0.24066 29:0.21169 30:0.60492 31:0.83966 32:0.21523 33:0.39835 34:0.68804 35:0.23775 36:0.38351 37:0.28268 38:0.61079 39:0.77913 40:0.73619 41:0.49128 42:0.62166 43:0.4316 44:0.13084 45:0.25565 46:0.46291 47:0.31581 48:0.24066 49:0.21169 50:0.60492 51:0.83966 52:0.21523 53:0.39835 54:0.68804 55:0.23775 56:0.38351 57:0.28268 58:0.61079 59:0.77913 60:0.73619 
10 1:0.57102 2:0.050335 3:0.018183 4:0.016451 5:0.39697 6:0.25637 7:0.026434 8:0.22906 9:0.09149 10:0.63785 11:0.92427 12:0.024327 13:0.60705 14:0.70496 15:0.10472 16:0.38351 17:0.24455 18:0.17115 19:0.35946 20:0.79407 21:0.57102 22:0.050335 23:0.018183 24:0.016451 25:0.39697 26:0.25637 27:0.026434 28:0.22906 29:0.09149 30:0.63785 31:0.92427 32:0.024327 33:0.60705 34:0.70496 35:0.10472 36:0.38351 37:0.24455 38:0.17115 39:0.35946 40:0.79407 41:0.57102 42:0.050335 43:0.018183 44:0.016451 45:0.39697 46:0.25637 47:0.026434 48:0.22906 49:0.09149 50:0.63785 51:0.92427 52:0.024327 53:0.60705 54:0.70496 55:0.10472 56:0.38351 57:0.24455 58:0.17115 59:0.35946 60:0.79407 
10 1:0.73172 2:0.42596 3:0.15626 4:0.1786 5:0.054143 6:0.11708 7:0.22998 8:0.65769 9:0.016507 10:0.32902 11:0.78672 12:0.024327 13:0.5483 14:0.55673 15:0.055252 16:0.80381 17:0.66013 18:0.099201 19:0.28615 20:0.61513 21:0.73172 22:0.42596 23:0.15626 24:0.1786 25:0.054143 26:0.11708 27:0.22998 28:0.65769 29:0.016507 30:0.32902 31:0.78672 32:0.024327 33:0.5483 34:0.55673 35:0.055252 36:0.80381 37:0.66013 38:0.099201 39:0.28615 40:0.61513 41:0.73172 42:0.42596 43:0.15626 44:0.1786 45:0.054143 46:0.11708 47:0.22998 48:0.65769 49:0.016507 50:0.32902 51:0.78672 52:0.024327 53:0.5483 54:0.55673 55:0.055252 56:0.80381 57:0.66013 58:0.099201 59:0.28615 60:0.61513 
10 1:0.47381 2:0 3:0.018183 4:0 5:0.054143 6:0.013086 7:0 8:0.29377 9:0 10:0.55771 11:0.91712 12:0 13:0.51441 14:0.7482 15:0.12008 16:0.54125 17:0.64305 18:0.18964 19:0.66714 20:0.80033 21:0.47381 22:0 23:0.018183 24:0 25:0.054143 26:0.013086 27:0 28:0.29377 29:0 30:0.55771 31:0.91712 32:0 33:0.51441 34:0.7482 35:0.12008 36:0.54125 37:0.64305 38:0.18964 39:0.66714 40:0.80033 41:0.47381 42:0 43:0.018183 44:0 45:0.054143 46:0.013086 47:0 48:0.29377 49:0 50:0.55771 51:0.91712 52:0 53:0.51441 54:0.7482 55:0.12008 56:0.54125 57:0.64305 58:0.18964 59:0.66714 60:0.80033 
10 1:0.32563 2:0 3:0 4:0 5:0.079073 6:0.013086 7:0 8:0.073415 9:0 10:0.74569 11:0.92605 12:0 13:0.69241 14:0.7381 15:0.14926 16:0.20472 17:0.21966 18:0.013579 19:0.13818 20:0.78741 21:0.32563 22:0 23:0 24:0 25:0.079073 26:0.013086 27:0 28:0.073415 29:0 30:0.74569 31:0.92605 32:0 33:0.69241 34:0.7381 35:0.14926 36:0.20472 37:0.21966 38:0.013579 39:0.13818 40:0.78741 41:0.32563 42:0 43:0 44:0 45:0.079073 46:0.013086 47:0 48:0.073415 49:0 50:0.74569 51:0.92605 52:0 53:0.69241 54:0.7381 55:0.14926 56:0.20472 57:0.21966 58:0.013579 59:0.13818 60:0.78741 
